{"learner":{"attributes":{},"feature_names":[],"feature_types":[],"gradient_booster":{"model":{"gbtree_model_param":{"num_parallel_tree":"1","num_trees":"20"},"iteration_indptr":[0,1,2,3,4,5,6,7,8,9,10,11,12,13,14,15,16,17,18,19,20],"tree_info":[0,0,0,0,0,0,0,0,0,0,0,0,0,0,0,0,0,0,0,0],"trees":[{"base_weights":[-2.2443347E-9,1.2611121E-1,-8.6377546E-2,-3.749226E-2,1.9077623E-1,-6.99251E-2,-3.4126744E-2,-1.3154376E-2,-7.180669E-2,6.2736124E-2,3.3752438E-2,1.8424088E-2,-3.9750308E-2,8.197176E-3,-2.668944E-2,-2.6318E-2,-7.993352E-3,2.9823592E-2,-5.7860157E-3,-5.4435026E-2,-2.723948E-2,-1.6556494E-5,-3.048645E-2,2.2507266E-3,1.0058484E-2,-4.0307015E-2,-6.7357935E-2,-1.739883E-2,-3.654026E-2,-1.9683712E-3,-1.00141335E-2,-1.2642917E-2,-2.7411846E-3,-8.299113E-3,-2.214706E-2,1.0036696E-3,-6.733005E-3,-1.1606597E-2,-4.7299773E-3],"categories":[],"categories_nodes":[],"categories_segments":[],"categories_sizes":[],"default_left":[0,0,0,0,0,0,0,0,0,0,0,0,0,0,0,0,0,0,0,0,0,0,0,0,0,0,0,0,0,0,0,0,0,0,0,0,0,0,0],"id":0,"left_children":[1,3,5,7,9,-1,11,13,15,-1,-1,17,19,-1,21,-1,-1,23,-1,25,27,-1,29,-1,-1,31,33,35,37,-1,-1,-1,-1,-1,-1,-1,-1,-1,-1],"loss_changes":[1.3398607E0,5.3612375E-1,5.5162793E-1,1.15825385E-2,2.8159857E-2,0E0,1.6986132E-2,6.208023E-3,1.976451E-3,0E0,0E0,3.1545062E-3,7.703118E-3,0E0,8.073617E-4,0E0,0E0,1.619216E-4,0E0,1.3016537E-3,2.018489E-3,0E0,2.656593E-4,0E0,0E0,3.5890192E-4,5.2423775E-4,1.7494136E-3,1.4832243E-5,0E0,0E0,0E0,0E0,0E0,0E0,0E0,0E0,0E0,0E0],"parents":[2147483647,0,0,1,1,2,2,3,3,4,4,6,6,7,7,8,8,11,11,12,12,14,14,17,17,19,19,20,20,22,22,25,25,26,26,27,27,28,28],"right_children":[2,4,6,8,10,-1,12,14,16,-1,-1,18,20,-1,22,-1,-1,24,-1,26,28,-1,30,-1,-1,32,34,36,38,-1,-1,-1,-1,-1,-1,-1,-1,-1,-1],"split_conditions":[2.624676E-1,5.9201445E-2,5.9201445E-2,5.463392E-1,-7.2459346E-1,-6.99251E-2,5.173222E-1,-6.039027E-1,-7.487448E-1,6.2736124E-2,3.3752438E-2,5.459785E-1,-2.6202917E-2,8.197176E-3,-1.516744E0,-2.6318E-2,-7.993352E-3,-6.766874E-1,-5.7860157E-3,1.0913583E0,1.2246562E-1,-1.6556494E-5,-1.487893E0,2.2507266E-3,1.0058484E-2,8.280145E-1,-5.484935E-1,-1.1796222E-1,-1.405761E-1,-1.9683712E-3,-1.00141335E-2,-1.2642917E-2,-2.7411846E-3,-8.299113E-3,-2.214706E-2,1.0036696E-3,-6.733005E-3,-1.1606597E-2,-4.7299773E-3],"split_indices":[20,15,15,1,20,0,20,7,4,0,0,0,2,0,1,0,0,0,0,20,7,0,8,0,0,1,3,4,5,0,0,0,0,0,0,0,0,0,0],"split_type":[0,0,0,0,0,0,0,0,0,0,0,0,0,0,0,0,0,0,0,0,0,0,0,0,0,0,0,0,0,0,0,0,0,0,0,0,0,0,0],"sum_hessian":[1.21E2,4.9E1,7.2E1,1.4E1,3.5E1,1.8E1,5.4E1,9E0,5E0,2.7E1,8E0,5E0,4.9E1,2E0,7E0,3E0,2E0,4E0,1E0,2.1E1,2.8E1,1E0,6E0,1E0,3E0,1.2E1,9E0,1.5E1,1.3E1,1E0,5E0,1.1E1,1E0,2E0,7E0,3E0,1.2E1,1.1E1,2E0],"tree_param":{"num_deleted":"0","num_feature":"22","num_nodes":"39","size_leaf_vector":"1"}},{"base_weights":[-5.977295E-4,8.944535E-2,-6.2262885E-2,-2.8785463E-2,1.362236E-1,-1.6683884E-1,-2.5004594E-2,-9.588251E-3,-5.598324E-2,4.4587456E-2,2.4751788E-2,-1.1223367E-2,-5.158526E-2,1.398406E-2,-2.918314E-2,6.5577403E-3,-2.018249E-2,-2.0396449E-2,-6.394681E-3,2.3338355E-2,-4.9181134E-3,-3.8609255E-2,-1.8212652E-2,-1.4073216E-5,-2.30523E-2,1.9131175E-3,7.795325E-3,-3.1364854E-2,-1.6137583E-2,-1.3237258E-2,-8.734646E-3,-1.6731154E-3,-7.5106E-3,-1.0117359E-2,-4.048501E-3,-4.8117414E-3,3.8387036E-4],"categories":[],"categories_nodes":[],"categories_segments":[],"categories_sizes":[],"default_left":[0,0,0,0,0,0,0,0,0,0,0,0,0,0,0,0,0,0,0,0,0,0,0,0,0,0,0,0,0,0,0,0,0,0,0,0,0],"id":1,"left_children":[1,3,5,7,9,11,13,15,17,-1,-1,-1,-1,19,21,-1,23,-1,-1,25,-1,27,29,-1,31,-1,-1,33,-1,35,-1,-1,-1,-1,-1,-1,-1],"loss_changes":[6.8297666E-1,2.8045276E-1,2.8025973E-1,7.2950413E-3,1.1719584E-2,6.1382055E-3,9.3684755E-3,3.7727829E-3,1.047885E-3,0E0,0E0,0E0,0E0,2.0875782E-3,4.4672787E-3,0E0,4.6120072E-4,0E0,0E0,5.8698934E-5,0E0,1.17255E-3,9.70738E-4,0E0,1.02954684E-4,0E0,0E0,3.8822927E-4,0E0,7.9333596E-4,0E0,0E0,0E0,0E0,0E0,0E0,0E0],"parents":[2147483647,0,0,1,1,2,2,3,3,4,4,5,5,6,6,7,7,8,8,13,13,14,14,16,16,19,19,21,21,22,22,24,24,27,27,29,29],"right_children":[2,4,6,8,10,12,14,16,18,-1,-1,-1,-1,20,22,-1,24,-1,-1,26,-1,28,30,-1,32,-1,-1,34,-1,36,-1,-1,-1,-1,-1,-1,-1],"split_conditions":[2.624676E-1,5.9201445E-2,5.9201445E-2,5.463392E-1,-7.2459346E-1,-1.2993895E0,5.173222E-1,-6.039027E-1,-7.487448E-1,4.4587456E-2,2.4751788E-2,-1.1223367E-2,-5.158526E-2,5.459785E-1,5.7646924E-1,6.5577403E-3,-1.516744E0,-2.0396449E-2,-6.394681E-3,-6.766874E-1,-4.9181134E-3,1.0913583E0,1.0913583E0,-1.4073216E-5,-1.487893E0,1.9131175E-3,7.795325E-3,9.6119523E-1,-1.6137583E-2,9.6119523E-1,-8.734646E-3,-1.6731154E-3,-7.5106E-3,-1.0117359E-2,-4.048501E-3,-4.8117414E-3,3.8387036E-4],"split_indices":[20,15,15,1,20,1,20,7,4,0,0,0,0,0,15,0,1,0,0,0,0,20,20,0,8,0,0,20,0,20,0,0,0,0,0,0,0],"split_type":[0,0,0,0,0,0,0,0,0,0,0,0,0,0,0,0,0,0,0,0,0,0,0,0,0,0,0,0,0,0,0,0,0,0,0,0,0],"sum_hessian":[1.21E2,4.9E1,7.2E1,1.4E1,3.5E1,1.8E1,5.4E1,9E0,5E0,2.7E1,8E0,1E0,1.7E1,5E0,4.9E1,2E0,7E0,3E0,2E0,4E0,1E0,2.5E1,2.4E1,1E0,6E0,1E0,3E0,1.9E1,6E0,1.8E1,6E0,1E0,5E0,1.6E1,3E0,1.5E1,3E0],"tree_param":{"num_deleted":"0","num_feature":"22","num_nodes":"37","size_leaf_vector":"1"}},{"base_weights":[-9.23132E-4,6.340991E-2,-4.497421E-2,-2.2111904E-2,9.728261E-2,-1.2009289E-1,-1.8206408E-2,-1.0059697E-2,-1.5822165E-2,1.0562981E-1,1.815131E-2,-1.23336926E-1,-9.255037E-3,1.0587229E-2,-2.1297516E-2,-1.8188588E-2,1.0745233E-2,2.5055604E-2,4.2908702E-2,-9.539862E-3,-3.805528E-2,1.8278535E-2,-4.180396E-3,-2.9835092E-2,-1.408634E-2,-1.1962094E-5,-2.0452194E-2,-1.4221483E-3,5.2461927E-3,1.6261496E-3,6.0413764E-3,-3.868796E-2,-2.0730186E-2,-1.7769527E-2,-5.3113294E-3,-1.804803E-3,-6.496523E-3,-3.1161658E-3,-1.2203505E-2,-8.881729E-3,-4.048787E-3,-6.660933E-3,-3.3346904E-3,-2.2754578E-3,2.2725658E-3],"categories":[],"categories_nodes":[],"categories_segments":[],"categories_sizes":[],"default_left":[0,0,0,0,0,0,0,0,0,0,0,0,0,0,0,0,0,0,0,0,0,0,0,0,0,0,0,0,0,0,0,0,0,0,0,0,0,0,0,0,0,0,0,0,0],"id":2,"left_children":[1,3,5,7,9,11,13,15,-1,17,-1,19,-1,21,23,25,27,-1,-1,-1,-1,29,-1,31,33,-1,35,-1,-1,-1,-1,37,39,41,43,-1,-1,-1,-1,-1,-1,-1,-1,-1,-1],"loss_changes":[3.485925E-1,1.4699383E-1,1.4459918E-1,5.0065876E-3,4.660785E-3,1.6956925E-3,5.120715E-3,2.2248928E-3,0E0,1.1208683E-2,0E0,1.756072E-3,0E0,1.3863372E-3,2.6580319E-3,3.689183E-4,5.005222E-4,0E0,0E0,0E0,0E0,1.0382617E-5,0E0,9.7128935E-4,8.429005E-4,0E0,8.642906E-6,0E0,0E0,0E0,0E0,1.407601E-4,4.351451E-4,3.4321053E-4,3.504365E-4,0E0,0E0,0E0,0E0,0E0,0E0,0E0,0E0,0E0,0E0],"parents":[2147483647,0,0,1,1,2,2,3,3,4,4,5,5,6,6,7,7,9,9,11,11,13,13,14,14,15,15,16,16,21,21,23,23,24,24,26,26,31,31,32,32,33,33,34,34],"right_children":[2,4,6,8,10,12,14,16,-1,18,-1,20,-1,22,24,26,28,-1,-1,-1,-1,30,-1,32,34,-1,36,-1,-1,-1,-1,38,40,42,44,-1,-1,-1,-1,-1,-1,-1,-1,-1,-1],"split_conditions":[2.624676E-1,5.9201445E-2,5.9201445E-2,-7.2459346E-1,-7.2459346E-1,1.706735E0,5.173222E-1,-9.3981284E-1,-1.5822165E-2,-9.3981284E-1,1.815131E-2,-1.2993895E0,-9.255037E-3,5.459785E-1,-2.6202917E-2,-1.516744E0,-1.5246654E0,2.5055604E-2,4.2908702E-2,-9.539862E-3,-3.805528E-2,-6.766874E-1,-4.180396E-3,7.340686E-1,6.156562E-1,-1.1962094E-5,-1.5145512E0,-1.4221483E-3,5.2461927E-3,1.6261496E-3,6.0413764E-3,-6.8534476E-1,-9.895095E-1,7.2390825E-1,4.7070426E-1,-1.804803E-3,-6.496523E-3,-3.1161658E-3,-1.2203505E-2,-8.881729E-3,-4.048787E-3,-6.660933E-3,-3.3346904E-3,-2.2754578E-3,2.2725658E-3],"split_indices":[20,15,15,20,20,2,20,20,0,20,0,1,0,0,2,1,0,0,0,0,0,0,0,4,15,0,1,0,0,0,0,3,2,20,6,0,0,0,0,0,0,0,0,0,0],"split_type":[0,0,0,0,0,0,0,0,0,0,0,0,0,0,0,0,0,0,0,0,0,0,0,0,0,0,0,0,0,0,0,0,0,0,0,0,0,0,0,0,0,0,0,0,0],"sum_hessian":[1.21E2,4.9E1,7.2E1,1.4E1,3.5E1,1.8E1,5.4E1,1.1E1,3E0,2.7E1,8E0,1.7E1,1E0,5E0,4.9E1,8E0,3E0,1.9E1,8E0,1E0,1.6E1,4E0,1E0,2.1E1,2.8E1,1E0,7E0,1E0,2E0,1E0,3E0,9E0,1.2E1,1.9E1,9E0,1E0,6E0,1E0,8E0,4E0,8E0,1E1,9E0,8E0,1E0],"tree_param":{"num_deleted":"0","num_feature":"22","num_nodes":"45","size_leaf_vector":"1"}},{"base_weights":[-8.5772853E-4,4.570302E-2,-3.27369E-2,-1.6832426E-2,7.048993E-2,-8.7057136E-2,-1.3376515E-2,-4.1699545E-3,-3.513114E-2,4.9625684E-2,2.4037538E-2,-1.024496E-1,-1.7571332E-2,7.992248E-3,-1.5673237E-2,4.196954E-3,-1.0458635E-2,-1.2946684E-2,-3.8164402E-3,6.52383E-2,3.3703312E-2,-3.2235015E-2,-7.866781E-3,4.298544E-3,-3.5533367E-3,-1.1786471E-2,-2.5828917E-2,-3.5460661E-3,-4.1690893E-3,8.35066E-3,2.309424E-2,1.064535E-2,2.918067E-3,-1.4902424E-2,-1.5715591E-3,-2.9035057E-3,-2.970625E-2,-1.4116479E-3,-1.0167808E-5,-7.125673E-3,-3.468321E-3,-2.0064178E-3,8.862352E-4,-1.0469373E-2,-3.9582863E-3],"categories":[],"categories_nodes":[],"categories_segments":[],"categories_sizes":[],"default_left":[0,0,0,0,0,0,0,0,0,0,0,0,0,0,0,0,0,0,0,0,0,0,0,0,0,0,0,0,0,0,0,0,0,0,0,0,0,0,0,0,0,0,0,0,0],"id":3,"left_children":[1,3,5,7,9,11,13,15,17,19,-1,21,-1,23,25,-1,27,-1,-1,29,31,-1,-1,-1,-1,33,35,37,-1,-1,-1,-1,-1,39,41,-1,43,-1,-1,-1,-1,-1,-1,-1,-1],"loss_changes":[1.82583E-1,7.8689545E-2,7.560672E-2,3.3291094E-3,3.260851E-3,2.3303628E-3,2.8245598E-3,1.2883267E-3,5.299519E-4,1.281511E-3,0E0,1.3752356E-3,0E0,9.238528E-4,1.6692057E-3,0E0,1.4086184E-4,0E0,0E0,4.9241073E-4,3.9205886E-5,0E0,0E0,0E0,0E0,1.1860896E-3,5.265679E-4,1.612895E-5,0E0,0E0,0E0,0E0,0E0,5.829395E-4,2.5131356E-4,0E0,3.9679185E-4,0E0,0E0,0E0,0E0,0E0,0E0,0E0,0E0],"parents":[2147483647,0,0,1,1,2,2,3,3,4,4,5,5,6,6,7,7,8,8,9,9,11,11,13,13,14,14,16,16,19,19,20,20,25,25,26,26,27,27,33,33,34,34,36,36],"right_children":[2,4,6,8,10,12,14,16,18,20,-1,22,-1,24,26,-1,28,-1,-1,30,32,-1,-1,-1,-1,34,36,38,-1,-1,-1,-1,-1,40,42,-1,44,-1,-1,-1,-1,-1,-1,-1,-1],"split_conditions":[2.624676E-1,5.9201445E-2,5.9201445E-2,5.463392E-1,-1.6395654E-1,9.00946E-1,5.173222E-1,-6.039027E-1,-7.487448E-1,-7.260918E-1,2.4037538E-2,1.706735E0,-1.7571332E-2,5.459785E-1,1.0913583E0,4.196954E-3,-2.0983692E-2,-1.2946684E-2,-3.8164402E-3,-1.086214E0,-3.1948078E-1,-3.2235015E-2,-7.866781E-3,4.298544E-3,-3.5533367E-3,6.156562E-1,-1.366902E0,-1.0513754E0,-4.1690893E-3,8.35066E-3,2.309424E-2,1.064535E-2,2.918067E-3,1.8654013E-1,-2.2098048E-1,-2.9035057E-3,6.156562E-1,-1.4116479E-3,-1.0167808E-5,-7.125673E-3,-3.468321E-3,-2.0064178E-3,8.862352E-4,-1.0469373E-2,-3.9582863E-3],"split_indices":[20,15,15,1,0,0,20,7,4,7,0,2,0,0,20,0,2,0,0,20,3,0,0,0,0,15,0,0,0,0,0,0,0,16,7,0,15,0,0,0,0,0,0,0,0],"split_type":[0,0,0,0,0,0,0,0,0,0,0,0,0,0,0,0,0,0,0,0,0,0,0,0,0,0,0,0,0,0,0,0,0,0,0,0,0,0,0,0,0,0,0,0,0],"sum_hessian":[1.21E2,4.9E1,7.2E1,1.4E1,3.5E1,1.8E1,5.4E1,9E0,5E0,1.3E1,2.2E1,1E1,8E0,5E0,4.9E1,2E0,7E0,3E0,2E0,5E0,8E0,9E0,1E0,4E0,1E0,3.7E1,1.2E1,3E0,4E0,2E0,3E0,7E0,1E0,2.8E1,9E0,3E0,9E0,2E0,1E0,6E0,2.2E1,4E0,5E0,6E0,3E0],"tree_param":{"num_deleted":"0","num_feature":"22","num_nodes":"45","size_leaf_vector":"1"}},{"base_weights":[-8.8798703E-4,5.7876665E-2,-1.4394977E-2,4.0008243E-2,7.7104785E-2,-4.422526E-2,2.9317546E-4,4.454635E-3,1.2889228E-2,2.4790117E-3,2.5150703E-2,-7.0900954E-3,-6.006272E-2,3.53837E-2,-9.459622E-3,5.6637563E-3,-1.0553591E-2,-8.216684E-2,-4.5256738E-2,2.4803572E-3,1.1018997E-2,-6.153459E-3,-1.9413408E-2,2.5573333E-3,-8.64286E-6,-1.6640642E-3,-4.034875E-3,-2.6222758E-2,-6.8205604E-3,-6.3919714E-3,-4.9144734E-2,5.9064613E-3,-8.327515E-3,-2.2502167E-3,-2.2237143E-2,-6.2341946E-3,-1.5723808E-2,3.157758E-3,-1.1284067E-3,3.796591E-4,-2.869858E-3,-7.777249E-3,-3.0676716E-3],"categories":[],"categories_nodes":[],"categories_segments":[],"categories_sizes":[],"default_left":[0,0,0,0,0,0,0,0,0,0,0,0,0,0,0,0,0,0,0,0,0,0,0,0,0,0,0,0,0,0,0,0,0,0,0,0,0,0,0,0,0,0,0],"id":4,"left_children":[1,3,5,7,9,11,13,-1,-1,-1,-1,15,17,19,21,23,25,27,29,-1,-1,31,33,-1,-1,-1,-1,-1,-1,-1,35,37,39,-1,41,-1,-1,-1,-1,-1,-1,-1,-1],"loss_changes":[9.766862E-2,4.817426E-3,4.382814E-2,4.0317886E-4,3.9408766E-3,1.8982328E-2,2.3606412E-2,0E0,0E0,0E0,0E0,5.456749E-4,3.8086772E-3,2.4390593E-4,1.6576173E-3,4.9099544E-5,5.589146E-5,5.052276E-4,4.4278428E-4,0E0,0E0,1.1503812E-3,2.7050264E-4,0E0,0E0,0E0,0E0,0E0,0E0,0E0,1.1583418E-4,3.5220795E-4,4.3988344E-4,0E0,1.777797E-4,0E0,0E0,0E0,0E0,0E0,0E0,0E0,0E0],"parents":[2147483647,0,0,1,1,2,2,3,3,4,4,5,5,6,6,11,11,12,12,13,13,14,14,15,15,16,16,17,17,18,18,21,21,22,22,30,30,31,31,32,32,34,34],"right_children":[2,4,6,8,10,12,14,-1,-1,-1,-1,16,18,20,22,24,26,28,30,-1,-1,32,34,-1,-1,-1,-1,-1,-1,-1,36,38,40,-1,42,-1,-1,-1,-1,-1,-1,-1,-1],"split_conditions":[-8.831761E-1,-1.086214E0,1.789429E-1,3.9620924E-1,-9.020852E-1,-7.2459346E-1,2.624676E-1,4.454635E-3,1.2889228E-2,2.4790117E-3,2.5150703E-2,-1.516744E0,-1.1172057E0,3.9620924E-1,1.0913583E0,-8.5417116E-1,-5.7447815E-1,9.0254533E-1,1.3163587E-1,2.4803572E-3,1.1018997E-2,-1.1796222E-1,-1.366902E0,2.5573333E-3,-8.64286E-6,-1.6640642E-3,-4.034875E-3,-2.6222758E-2,-6.8205604E-3,-6.3919714E-3,-9.4031775E-1,9.781294E-1,5.173222E-1,-2.2502167E-3,6.156562E-1,-6.2341946E-3,-1.5723808E-2,3.157758E-3,-1.1284067E-3,3.796591E-4,-2.869858E-3,-7.777249E-3,-3.0676716E-3],"split_indices":[3,20,16,15,14,20,20,0,0,0,0,1,11,15,20,0,1,1,6,0,0,4,0,0,0,0,0,0,0,0,7,2,20,0,15,0,0,0,0,0,0,0,0],"split_type":[0,0,0,0,0,0,0,0,0,0,0,0,0,0,0,0,0,0,0,0,0,0,0,0,0,0,0,0,0,0,0,0,0,0,0,0,0,0,0,0,0,0,0],"sum_hessian":[1.21E2,2.2E1,9.9E1,1.3E1,9E0,3.2E1,6.7E1,2E0,1.1E1,1E0,8E0,1E1,2.2E1,1.4E1,5.3E1,2E0,8E0,7E0,1.5E1,1E0,1.3E1,4.1E1,1.2E1,1E0,1E0,4E0,4E0,6E0,1E0,3E0,1.2E1,6E0,3.5E1,3E0,9E0,2E0,1E1,4E0,2E0,4E0,3.1E1,6E0,3E0],"tree_param":{"num_deleted":"0","num_feature":"22","num_nodes":"43","size_leaf_vector":"1"}},{"base_weights":[-7.8246335E-4,4.246904E-2,-1.0722484E-2,2.9244622E-2,5.6736324E-2,-3.2913547E-2,2.0439096E-4,5.8571813E-3,1.1685465E-2,2.1071602E-3,1.844385E-2,-5.249453E-3,-4.4713177E-2,2.5668552E-2,-6.8727722E-3,4.814194E-3,-8.02073E-3,-6.1647207E-2,-3.3451587E-2,4.9269074E-3,9.511654E-3,-4.318394E-3,-1.4596703E-2,2.173734E-3,-7.346459E-6,-1.3641712E-3,-3.367736E-3,-2.0747066E-2,-7.823633E-3,-3.814149E-2,-5.783453E-3,-6.0399756E-4,-8.78298E-3,-1.8218305E-2,-2.2005353E-3,-4.987355E-3,-1.2322762E-2,-1.3436228E-3,2.3116008E-3,-4.1643344E-3,-1.949421E-3,-6.307784E-3,-1.9590762E-3],"categories":[],"categories_nodes":[],"categories_segments":[],"categories_sizes":[],"default_left":[0,0,0,0,0,0,0,0,0,0,0,0,0,0,0,0,0,0,0,0,0,0,0,0,0,0,0,0,0,0,0,0,0,0,0,0,0,0,0,0,0,0,0],"id":5,"left_children":[1,3,5,7,9,11,13,-1,-1,-1,-1,15,17,19,21,23,25,27,29,-1,-1,31,33,-1,-1,-1,-1,-1,-1,35,-1,37,39,41,-1,-1,-1,-1,-1,-1,-1,-1,-1],"loss_changes":[5.2905716E-2,2.6803277E-3,2.4254628E-2,5.6052394E-4,1.9261241E-3,1.0537341E-2,1.2430968E-2,0E0,0E0,0E0,0E0,3.4539402E-4,2.3239963E-3,3.1652302E-4,1.0023769E-3,3.5474433E-5,4.9148337E-5,3.3333525E-4,3.282521E-4,0E0,0E0,6.911912E-4,2.0824792E-4,0E0,0E0,0E0,0E0,0E0,0E0,1.1662021E-5,0E0,8.072273E-4,1.3112638E-4,1.2522214E-4,0E0,0E0,0E0,0E0,0E0,0E0,0E0,0E0,0E0],"parents":[2147483647,0,0,1,1,2,2,3,3,4,4,5,5,6,6,11,11,12,12,13,13,14,14,15,15,16,16,17,17,18,18,21,21,22,22,29,29,31,31,32,32,33,33],"right_children":[2,4,6,8,10,12,14,-1,-1,-1,-1,16,18,20,22,24,26,28,30,-1,-1,32,34,-1,-1,-1,-1,-1,-1,36,-1,38,40,42,-1,-1,-1,-1,-1,-1,-1,-1,-1],"split_conditions":[-8.831761E-1,-1.086214E0,1.789429E-1,4.138635E-1,-9.020852E-1,-7.2459346E-1,2.624676E-1,5.8571813E-3,1.1685465E-2,2.1071602E-3,1.844385E-2,-1.516744E0,-1.1172057E0,4.2462432E-1,1.0913583E0,-8.5417116E-1,5.463392E-1,8.8367456E-1,4.626886E-1,4.9269074E-3,9.511654E-3,1.2246562E-1,1.7303829E0,2.173734E-3,-7.346459E-6,-1.3641712E-3,-3.367736E-3,-2.0747066E-2,-7.823633E-3,-9.4031775E-1,-5.783453E-3,3.4012592E-1,2.4154112E-1,-2.6202917E-2,-2.2005353E-3,-4.987355E-3,-1.2322762E-2,-1.3436228E-3,2.3116008E-3,-4.1643344E-3,-1.949421E-3,-6.307784E-3,-1.9590762E-3],"split_indices":[3,20,16,5,14,20,20,0,0,0,0,1,11,9,20,0,1,1,3,0,0,7,20,0,0,0,0,0,0,7,0,2,18,2,0,0,0,0,0,0,0,0,0],"split_type":[0,0,0,0,0,0,0,0,0,0,0,0,0,0,0,0,0,0,0,0,0,0,0,0,0,0,0,0,0,0,0,0,0,0,0,0,0,0,0,0,0,0,0],"sum_hessian":[1.21E2,2.2E1,9.9E1,1.3E1,9E0,3.2E1,6.7E1,8E0,5E0,1E0,8E0,1E1,2.2E1,1.4E1,5.3E1,2E0,8E0,7E0,1.5E1,7E0,7E0,4.1E1,1.2E1,1E0,1E0,5E0,3E0,5E0,2E0,1E1,5E0,2.3E1,1.8E1,7E0,5E0,2E0,8E0,1.6E1,7E0,4E0,1.4E1,5E0,2E0],"tree_param":{"num_deleted":"0","num_feature":"22","num_nodes":"43","size_leaf_vector":"1"}},{"base_weights":[-6.896151E-4,1.8014094E-2,-1.3490928E-2,-6.210553E-3,2.7607307E-2,-3.627015E-2,-5.3764526E-3,-1.0197464E-3,-1.3826804E-2,2.1584129E-2,4.5990407E-2,-4.4249717E-2,-2.248733E-2,5.3107706E-3,-6.5513905E-3,2.42584E-3,-4.3069827E-3,-5.04259E-3,-1.5726298E-3,2.4340829E-2,3.3915574E-3,2.9803636E-3,1.4916607E-2,-1.44283185E-2,-5.3897365E-3,-3.8571965E-3,-9.393154E-3,2.8929315E-3,-2.452635E-3,-1.3555741E-2,-4.8944727E-3,-1.6616471E-3,-1.961072E-3,5.162739E-3,1.11493785E-2,-2.3151801E-3,-5.677355E-3,-3.2020446E-3,-9.372948E-3,-6.199954E-4,-6.2445183E-6,-1.7255602E-3,1.4614381E-4,-1.4255093E-3,-3.4004548E-3],"categories":[],"categories_nodes":[],"categories_segments":[],"categories_sizes":[],"default_left":[0,0,0,0,0,0,0,0,0,0,0,0,0,0,0,0,0,0,0,0,0,0,0,0,0,0,0,0,0,0,0,0,0,0,0,0,0,0,0,0,0,0,0,0,0],"id":6,"left_children":[1,3,5,7,9,11,13,15,17,19,21,23,25,27,29,-1,31,-1,-1,33,-1,-1,-1,-1,-1,-1,-1,-1,-1,35,37,39,-1,-1,-1,-1,-1,41,43,-1,-1,-1,-1,-1,-1],"loss_changes":[2.9453734E-2,1.1791065E-2,1.3298421E-2,5.7891745E-4,2.9934254E-3,1.0945797E-3,7.2541833E-4,3.3415857E-4,6.5476284E-5,5.465653E-4,5.8240816E-4,2.4753064E-4,3.6213594E-4,4.2939757E-4,5.1393337E-4,0E0,3.6329147E-5,0E0,0E0,1.3724444E-3,0E0,0E0,0E0,0E0,0E0,0E0,0E0,0E0,0E0,1.3606355E-4,2.8832618E-4,3.2797025E-6,0E0,0E0,0E0,0E0,0E0,3.0381902E-4,4.5870955E-5,0E0,0E0,0E0,0E0,0E0,0E0],"parents":[2147483647,0,0,1,1,2,2,3,3,4,4,5,5,6,6,7,7,8,8,9,9,10,10,11,11,12,12,13,13,14,14,16,16,19,19,29,29,30,30,31,31,37,37,38,38],"right_children":[2,4,6,8,10,12,14,16,18,20,22,24,26,28,30,-1,32,-1,-1,34,-1,-1,-1,-1,-1,-1,-1,-1,-1,36,38,40,-1,-1,-1,-1,-1,42,44,-1,-1,-1,-1,-1,-1],"split_conditions":[2.624676E-1,5.9201445E-2,5.9201445E-2,5.463392E-1,1.038989E0,9.00946E-1,5.173222E-1,-6.039027E-1,-7.487448E-1,-7.2459346E-1,-8.643168E-1,4.626886E-1,4.3210903E-1,5.459785E-1,1.8654013E-1,2.42584E-3,8.7115633E-1,-5.04259E-3,-1.5726298E-3,-9.3981284E-1,3.3915574E-3,2.9803636E-3,1.4916607E-2,-1.44283185E-2,-5.3897365E-3,-3.8571965E-3,-9.393154E-3,2.8929315E-3,-2.452635E-3,-6.56967E-1,1.0913583E0,-7.950099E-1,-1.961072E-3,5.162739E-3,1.11493785E-2,-2.3151801E-3,-5.677355E-3,7.2390825E-1,-8.7143314E-1,-6.199954E-4,-6.2445183E-6,-1.7255602E-3,1.4614381E-4,-1.4255093E-3,-3.4004548E-3],"split_indices":[20,15,15,1,0,0,20,7,4,20,7,3,1,0,16,0,2,0,0,20,0,0,0,0,0,0,0,0,0,0,20,0,0,0,0,0,0,20,5,0,0,0,0,0,0],"split_type":[0,0,0,0,0,0,0,0,0,0,0,0,0,0,0,0,0,0,0,0,0,0,0,0,0,0,0,0,0,0,0,0,0,0,0,0,0,0,0,0,0,0,0,0,0],"sum_hessian":[1.21E2,4.9E1,7.2E1,1.4E1,3.5E1,1.8E1,5.4E1,9E0,5E0,2.8E1,7E0,1E1,8E0,5E0,4.9E1,2E0,7E0,3E0,2E0,2.1E1,7E0,1E0,6E0,8E0,2E0,5E0,3E0,4E0,1E0,8E0,4.1E1,4E0,3E0,1.5E1,6E0,5E0,3E0,3.1E1,1E1,3E0,1E0,1.8E1,1.3E1,4E0,6E0],"tree_param":{"num_deleted":"0","num_feature":"22","num_nodes":"45","size_leaf_vector":"1"}},{"base_weights":[-6.155356E-4,2.3402123E-2,-6.133442E-3,1.7528936E-2,3.712133E-2,-1.8532947E-2,-2.5837766E-5,1.1262927E-2,2.3953581E-2,2.8339014E-3,1.223012E-2,-2.8578113E-3,-2.5223969E-2,1.1365801E-2,-4.674959E-3,2.6949693E-3,3.8602431E-3,2.0906702E-3,8.536098E-3,3.285531E-3,-4.5880573E-3,-3.6402643E-2,-1.8058134E-2,1.2695489E-2,-2.0847397E-3,-7.675203E-3,-2.5189647E-3,1.714401E-4,1.0412962E-3,1.483797E-3,-5.3079802E-6,-2.446739E-3,-1.9959062E-3,-1.2422508E-2,-4.2771013E-3,-2.03733E-2,-3.241192E-3,5.7271216E-3,9.047991E-3,-1.8806409E-3,-9.481347E-3,-1.0378456E-3,-6.4623114E-3,-1.4966406E-4,-8.2096044E-4,-2.6648478E-3,-6.5819276E-3,2.9486914E-3,8.724224E-4,-2.6120479E-5,-6.6658255E-4,-3.2662626E-3,-6.821649E-5,-8.991438E-4,4.1161227E-4,-5.6407956E-4,-2.054484E-3],"categories":[],"categories_nodes":[],"categories_segments":[],"categories_sizes":[],"default_left":[0,0,0,0,0,0,0,0,0,0,0,0,0,0,0,0,0,0,0,0,0,0,0,0,0,0,0,0,0,0,0,0,0,0,0,0,0,0,0,0,0,0,0,0,0,0,0,0,0,0,0,0,0,0,0,0,0],"id":7,"left_children":[1,3,5,7,9,11,13,15,17,-1,-1,19,21,23,25,27,-1,-1,-1,29,31,33,35,37,-1,39,41,-1,-1,-1,-1,43,-1,-1,-1,45,-1,-1,47,49,51,53,55,-1,-1,-1,-1,-1,-1,-1,-1,-1,-1,-1,-1,-1,-1],"loss_changes":[1.6311854E-2,1.2025377E-3,7.572648E-3,4.5483653E-4,2.2027455E-4,3.3890428E-3,3.6544905E-3,1.1654722E-4,4.1316822E-4,0E0,0E0,1.3199863E-4,1.1850419E-3,5.752854E-4,2.9762345E-4,2.9600706E-6,0E0,0E0,0E0,1.6542112E-5,2.3517496E-5,2.9647816E-4,4.860107E-5,2.704535E-4,0E0,1.9148528E-4,1.685101E-4,0E0,0E0,0E0,0E0,2.0216867E-6,0E0,0E0,0E0,3.1059608E-6,0E0,0E0,3.854884E-5,3.4794266E-6,1.927173E-4,1.1271111E-4,1.2716337E-6,0E0,0E0,0E0,0E0,0E0,0E0,0E0,0E0,0E0,0E0,0E0,0E0,0E0,0E0],"parents":[2147483647,0,0,1,1,2,2,3,3,4,4,5,5,6,6,7,7,8,8,11,11,12,12,13,13,14,14,15,15,19,19,20,20,21,21,22,22,23,23,25,25,26,26,31,31,35,35,38,38,39,39,40,40,41,41,42,42],"right_children":[2,4,6,8,10,12,14,16,18,-1,-1,20,22,24,26,28,-1,-1,-1,30,32,34,36,38,-1,40,42,-1,-1,-1,-1,44,-1,-1,-1,46,-1,-1,48,50,52,54,56,-1,-1,-1,-1,-1,-1,-1,-1,-1,-1,-1,-1,-1,-1],"split_conditions":[-8.831761E-1,7.3321706E-1,1.789429E-1,-1.086214E0,-2.5913607E-2,-7.2459346E-1,5.173222E-1,7.81479E-1,3.9620924E-1,2.8339014E-3,1.223012E-2,-1.516744E0,-1.1172057E0,1.512279E0,6.043875E-1,-7.3584867E-1,3.8602431E-3,2.0906702E-3,8.536098E-3,-8.5417116E-1,5.463392E-1,8.8367456E-1,4.626886E-1,-1.1796222E-1,-2.0847397E-3,-1.366902E0,1.0913583E0,1.714401E-4,1.0412962E-3,1.483797E-3,-5.3079802E-6,-8.878692E-1,-1.9959062E-3,-1.2422508E-2,-4.2771013E-3,-9.4031775E-1,-3.241192E-3,5.7271216E-3,8.211311E-1,-1.7415899E0,2.7641132E-1,7.2390825E-1,-1.5838267E0,-1.4966406E-4,-8.2096044E-4,-2.6648478E-3,-6.5819276E-3,2.9486914E-3,8.724224E-4,-2.6120479E-5,-6.6658255E-4,-3.2662626E-3,-6.821649E-5,-8.991438E-4,4.1161227E-4,-5.6407956E-4,-2.054484E-3],"split_indices":[3,15,16,20,0,20,20,6,15,0,0,1,11,0,16,0,0,0,0,0,1,1,3,4,0,0,20,0,0,0,0,2,0,0,0,7,0,0,12,0,2,20,0,0,0,0,0,0,0,0,0,0,0,0,0,0,0],"split_type":[0,0,0,0,0,0,0,0,0,0,0,0,0,0,0,0,0,0,0,0,0,0,0,0,0,0,0,0,0,0,0,0,0,0,0,0,0,0,0,0,0,0,0,0,0,0,0,0,0,0,0,0,0,0,0,0,0],"sum_hessian":[1.21E2,2.2E1,9.9E1,1.7E1,5E0,3.2E1,6.7E1,1E1,7E0,1E0,4E0,1E1,2.2E1,1.9E1,4.8E1,2E0,8E0,2E0,5E0,2E0,8E0,7E0,1.5E1,1.8E1,1E0,1.9E1,2.9E1,1E0,1E0,1E0,1E0,5E0,3E0,5E0,2E0,1E1,5E0,5E0,1.3E1,5E0,1.4E1,2.2E1,7E0,1E0,4E0,2E0,8E0,1.1E1,2E0,1E0,4E0,1.2E1,2E0,1.2E1,1E1,1E0,6E0],"tree_param":{"num_deleted":"0","num_feature":"22","num_nodes":"57","size_leaf_vector":"1"}},{"base_weights":[-4.2744598E-4,1.0142693E-2,-7.661412E-3,-1.236801E-3,1.658231E-2,-2.0228159E-2,-2.8651832E-3,1.3955113E-3,-7.17273E-3,1.2629265E-2,2.6862785E-2,-2.918658E-2,-1.430408E-2,4.8293723E-3,-3.5773353E-3,4.298377E-3,-3.1913724E-3,-2.4081052E-3,-4.351941E-4,1.5767973E-2,2.3744996E-3,1.954271E-3,8.651735E-3,-1.958616E-3,-9.562432E-3,-7.577449E-3,-1.7199159E-2,4.347235E-4,1.9799627E-3,-4.7966135E-3,-9.943259E-5,5.783183E-3,9.965738E-4,-4.3695065E-4,-1.3322227E-3,9.473581E-3,6.7744707E-3,-2.926308E-3,-6.4472563E-4,-7.004143E-3,-1.0233976E-2,-7.7653727E-3,-3.709874E-3,1.4883416E-3,-9.7652833E-4,1.4572442E-4,2.0236562E-3,-8.781739E-5,7.296704E-4,3.1214189E-3,1.2429118E-3,-3.50593E-3,-4.457541E-4,-1.0498037E-3,-3.6669213E-3,-1.3763161E-3,-2.4961904E-4,-2.9397447E-4,9.891496E-4],"categories":[],"categories_nodes":[],"categories_segments":[],"categories_sizes":[],"default_left":[0,0,0,0,0,0,0,0,0,0,0,0,0,0,0,0,0,0,0,0,0,0,0,0,0,0,0,0,0,0,0,0,0,0,0,0,0,0,0,0,0,0,0,0,0,0,0,0,0,0,0,0,0,0,0,0,0,0,0],"id":8,"left_children":[1,3,5,7,9,11,13,15,17,19,21,23,25,27,29,31,33,-1,-1,35,-1,-1,-1,-1,-1,37,39,-1,-1,41,43,45,47,-1,-1,49,-1,-1,-1,-1,51,53,55,57,-1,-1,-1,-1,-1,-1,-1,-1,-1,-1,-1,-1,-1,-1,-1],"loss_changes":[9.406319E-3,3.6844881E-3,4.3419716E-3,3.0688877E-4,9.611957E-4,6.439211E-4,3.131797E-4,2.0012923E-4,1.7685466E-5,2.4511432E-4,1.3385853E-4,2.182587E-4,1.4231191E-4,2.0360363E-5,2.1154963E-4,3.835946E-5,6.5370186E-6,0E0,0E0,3.8649607E-4,0E0,0E0,0E0,0E0,0E0,4.993938E-5,1.4646235E-4,0E0,0E0,9.056338E-5,7.499139E-5,2.7310889E-5,8.115956E-6,0E0,0E0,1.5645055E-6,0E0,0E0,0E0,0E0,5.8873382E-5,1.2837717E-4,6.944465E-5,4.787734E-5,0E0,0E0,0E0,0E0,0E0,0E0,0E0,0E0,0E0,0E0,0E0,0E0,0E0,0E0,0E0],"parents":[2147483647,0,0,1,1,2,2,3,3,4,4,5,5,6,6,7,7,8,8,9,9,10,10,11,11,12,12,13,13,14,14,15,15,16,16,19,19,25,25,26,26,29,29,30,30,31,31,32,32,35,35,40,40,41,41,42,42,43,43],"right_children":[2,4,6,8,10,12,14,16,18,20,22,24,26,28,30,32,34,-1,-1,36,-1,-1,-1,-1,-1,38,40,-1,-1,42,44,46,48,-1,-1,50,-1,-1,-1,-1,52,54,56,58,-1,-1,-1,-1,-1,-1,-1,-1,-1,-1,-1,-1,-1,-1,-1],"split_conditions":[2.624676E-1,3.9620924E-1,2.2967656E-1,5.5675966E-1,1.038989E0,-2.9417315E-1,5.173222E-1,-5.284098E-2,8.0234396E-1,-8.831761E-1,-8.643168E-1,-1.1105366E0,-1.9027887E-1,-1.8367694E-1,6.156562E-1,-6.039027E-1,-7.950099E-1,-2.4081052E-3,-4.351941E-4,-1.086214E0,2.3744996E-3,1.954271E-3,8.651735E-3,-1.958616E-3,-9.562432E-3,8.1965184E-1,-6.6022974E-1,4.347235E-4,1.9799627E-3,1.8654013E-1,1.0913583E0,-1.2594825E0,-8.1213355E-1,-4.3695065E-4,-1.3322227E-3,1.5625558E0,6.7744707E-3,-2.926308E-3,-6.4472563E-4,-7.004143E-3,8.932233E-1,-6.56967E-1,3.213829E-1,-2.2098048E-1,-9.7652833E-4,1.4572442E-4,2.0236562E-3,-8.781739E-5,7.296704E-4,3.1214189E-3,1.2429118E-3,-3.50593E-3,-4.457541E-4,-1.0498037E-3,-3.6669213E-3,-1.3763161E-3,-2.4961904E-4,-2.9397447E-4,9.891496E-4],"split_indices":[20,15,19,1,0,8,20,2,0,3,7,0,1,0,15,7,0,0,0,20,0,0,0,0,0,6,7,0,0,16,20,2,1,0,0,1,0,0,0,0,6,0,2,7,0,0,0,0,0,0,0,0,0,0,0,0,0,0,0],"split_type":[0,0,0,0,0,0,0,0,0,0,0,0,0,0,0,0,0,0,0,0,0,0,0,0,0,0,0,0,0,0,0,0,0,0,0,0,0,0,0,0,0,0,0,0,0,0,0,0,0,0,0,0,0,0,0,0,0,0,0],"sum_hessian":[1.21E2,4.9E1,7.2E1,1.8E1,3.1E1,1.9E1,5.3E1,1.3E1,5E0,2.4E1,7E0,6E0,1.3E1,4E0,4.9E1,8E0,5E0,4E0,1E0,1.3E1,1.1E1,1E0,6E0,1E0,5E0,5E0,8E0,2E0,2E0,3.6E1,1.3E1,5E0,3E0,3E0,2E0,8E0,5E0,3E0,2E0,3E0,5E0,8E0,2.8E1,9E0,4E0,1E0,4E0,2E0,1E0,6E0,2E0,4E0,1E0,5E0,3E0,2.1E1,7E0,4E0,5E0],"tree_param":{"num_deleted":"0","num_feature":"22","num_nodes":"59","size_leaf_vector":"1"}},{"base_weights":[-3.6428828E-4,1.3464051E-2,-3.5411636E-3,8.7798E-3,2.114955E-2,-1.588357E-3,-1.6487764E-2,4.1811788E-3,1.1120854E-2,7.428949E-3,2.0617426E-3,-5.895897E-3,6.288388E-4,-6.7006326E-3,-2.1767143E-2,3.6050382E-4,1.5397929E-3,3.5893337E-3,5.2928034E-4,-1.9987307E-3,-9.659815E-3,7.5688544E-3,-1.4970102E-3,-2.2606712E-3,-3.788911E-4,-9.315722E-3,-9.985507E-3,-2.5576141E-3,9.576783E-4,-3.0167014E-3,-1.1801247E-2,5.455387E-3,3.446603E-3,-2.2391356E-3,2.9575643E-3,-3.5345268E-3,-4.2007642E-4,-5.8539055E-5,-1.380119E-3,-2.4331821E-4,-1.009604E-3,-4.2991154E-3,-1.1377984E-3,1.7115561E-3,4.4360833E-4,-8.54611E-5,-1.0200901E-3,9.403992E-6,2.0546217E-3],"categories":[],"categories_nodes":[],"categories_segments":[],"categories_sizes":[],"default_left":[0,0,0,0,0,0,0,0,0,0,0,0,0,0,0,0,0,0,0,0,0,0,0,0,0,0,0,0,0,0,0,0,0,0,0,0,0,0,0,0,0,0,0,0,0,0,0,0,0],"id":9,"left_children":[1,3,5,7,9,11,13,15,17,-1,-1,19,21,23,25,-1,-1,-1,-1,27,29,31,33,-1,-1,-1,35,37,-1,39,41,43,-1,45,47,-1,-1,-1,-1,-1,-1,-1,-1,-1,-1,-1,-1,-1,-1],"loss_changes":[5.40725E-3,6.4232945E-4,2.5020323E-3,1.2575171E-4,2.4255016E-4,8.441656E-4,5.2585616E-4,1.3676428E-5,5.782291E-5,0E0,0E0,4.2075105E-4,8.8178273E-4,1.7723476E-5,5.6509045E-4,0E0,0E0,0E0,0E0,5.4583128E-5,1.7778564E-4,5.3306692E-5,1.5869159E-4,0E0,0E0,0E0,6.0608843E-5,7.149292E-5,0E0,1.1154298E-6,1.6845262E-4,2.4909386E-6,0E0,8.9800276E-5,7.949028E-5,0E0,0E0,0E0,0E0,0E0,0E0,0E0,0E0,0E0,0E0,0E0,0E0,0E0,0E0],"parents":[2147483647,0,0,1,1,2,2,3,3,4,4,5,5,6,6,7,7,8,8,11,11,12,12,13,13,14,14,19,19,20,20,21,21,22,22,26,26,27,27,29,29,30,30,31,31,33,33,34,34],"right_children":[2,4,6,8,10,12,14,16,18,-1,-1,20,22,24,26,-1,-1,-1,-1,28,30,32,34,-1,-1,-1,36,38,-1,40,42,44,-1,46,48,-1,-1,-1,-1,-1,-1,-1,-1,-1,-1,-1,-1,-1,-1],"split_conditions":[-8.831761E-1,-1.0369815E0,7.191954E-1,2.3998962E-1,-4.1219917E-1,1.8654013E-1,-3.7288567E-1,-3.7335852E-1,8.314299E-1,7.428949E-3,2.0617426E-3,-4.5054153E-2,2.624676E-1,9.2214876E-1,8.374335E-1,3.6050382E-4,1.5397929E-3,3.5893337E-3,5.2928034E-4,6.664232E-1,-1.2962799E0,4.2596772E-1,4.1495177E-1,-2.2606712E-3,-3.788911E-4,-9.315722E-3,-8.344507E-1,-3.7049662E-2,9.576783E-4,-1.203784E0,1.1639072E0,3.290539E-1,3.446603E-3,6.5911204E-1,-8.817592E-1,-3.5345268E-3,-4.2007642E-4,-5.8539055E-5,-1.380119E-3,-2.4331821E-4,-1.009604E-3,-4.2991154E-3,-1.1377984E-3,1.7115561E-3,4.4360833E-4,-8.54611E-5,-1.0200901E-3,9.403992E-6,2.0546217E-3],"split_indices":[3,2,6,5,7,16,3,1,1,0,0,1,20,6,2,0,0,0,0,5,6,8,5,0,0,0,0,6,0,4,1,0,0,20,1,0,0,0,0,0,0,0,0,0,0,0,0,0,0],"split_type":[0,0,0,0,0,0,0,0,0,0,0,0,0,0,0,0,0,0,0,0,0,0,0,0,0,0,0,0,0,0,0,0,0,0,0,0,0,0,0,0,0,0,0,0,0,0,0,0,0],"sum_hessian":[1.21E2,2.2E1,9.9E1,1.5E1,7E0,8.7E1,1.2E1,6E0,9E0,5E0,2E0,2.9E1,5.8E1,5E0,7E0,2E0,4E0,8E0,1E0,1.5E1,1.4E1,1.3E1,4.5E1,4E0,1E0,3E0,4E0,1.4E1,1E0,4E0,1E1,1E1,3E0,3.9E1,6E0,3E0,1E0,7E0,7E0,1E0,3E0,7E0,3E0,9E0,1E0,1.5E1,2.4E1,4E0,2E0],"tree_param":{"num_deleted":"0","num_feature":"22","num_nodes":"49","size_leaf_vector":"1"}},{"base_weights":[-2.6328774E-4,5.7565244E-3,-4.38284E-3,-4.8088364E-4,9.280094E-3,-1.2052494E-2,-1.4610636E-3,2.0122707E-3,-2.9259496E-3,6.737781E-3,1.606481E-2,-6.1009433E-3,-1.4787872E-2,3.4984641E-3,-1.9277951E-3,3.1667934E-3,-1.7372133E-3,-4.7415172E-4,-4.5489892E-3,7.957885E-3,7.390591E-4,5.814096E-3,2.3712663E-3,-3.220573E-4,-6.6657853E-3,-5.0066113E-3,-1.7221589E-2,3.621783E-4,1.3870538E-3,-2.6329996E-3,8.118388E-4,6.979108E-5,3.5527248E-3,-7.991877E-4,1.7441624E-5,-3.9265922E-4,-1.557823E-3,5.3720516E-3,3.799555E-3,-5.3637254E-4,-2.154234E-3,-1.449287E-5,-1.9929826E-3,-4.049957E-3,-2.0008253E-2,-8.525754E-4,-3.3655895E-3,1.2551666E-3,-4.0238208E-4,4.4804477E-4,1.2233176E-3,8.562737E-4,1.9361085E-3,-1.465416E-3,-3.5706462E-4,-1.019957E-3,-6.568556E-3,-6.661019E-4,8.3945895E-5,-1.9443104E-3,-6.6639914E-4,-8.95441E-4,4.158887E-4],"categories":[],"categories_nodes":[],"categories_segments":[],"categories_sizes":[],"default_left":[0,0,0,0,0,0,0,0,0,0,0,0,0,0,0,0,0,0,0,0,0,0,0,0,0,0,0,0,0,0,0,0,0,0,0,0,0,0,0,0,0,0,0,0,0,0,0,0,0,0,0,0,0,0,0,0,0,0,0,0,0,0,0],"id":10,"left_children":[1,3,5,7,9,11,13,15,17,19,21,23,25,27,29,31,33,-1,35,37,-1,-1,-1,-1,39,41,43,-1,-1,45,47,-1,49,-1,-1,-1,-1,51,-1,-1,-1,-1,-1,53,55,57,59,-1,61,-1,-1,-1,-1,-1,-1,-1,-1,-1,-1,-1,-1,-1,-1],"loss_changes":[3.0506996E-3,1.1033596E-3,1.6182486E-3,1.21710415E-4,4.437226E-4,2.3537478E-4,1.3174179E-4,4.879004E-5,1.464739E-5,1.10771274E-4,6.3265674E-5,1.5561702E-5,2.2324082E-4,7.306786E-6,9.8737655E-5,8.232557E-6,5.146382E-6,0E0,1.546774E-6,1.6323547E-4,0E0,0E0,0E0,0E0,4.7459616E-6,3.213936E-5,2.8601638E-4,0E0,0E0,4.9303402E-5,4.6722067E-5,0E0,1.4777179E-6,0E0,0E0,0E0,0E0,1.9706698E-5,0E0,0E0,0E0,0E0,0E0,1.3477475E-6,1.7627096E-4,2.0756335E-5,8.542003E-5,0E0,4.570989E-5,0E0,0E0,0E0,0E0,0E0,0E0,0E0,0E0,0E0,0E0,0E0,0E0,0E0,0E0],"parents":[2147483647,0,0,1,1,2,2,3,3,4,4,5,5,6,6,7,7,8,8,9,9,10,10,11,11,12,12,13,13,14,14,15,15,16,16,18,18,19,19,24,24,25,25,26,26,29,29,30,30,32,32,37,37,43,43,44,44,45,45,46,46,48,48],"right_children":[2,4,6,8,10,12,14,16,18,20,22,24,26,28,30,32,34,-1,36,38,-1,-1,-1,-1,40,42,44,-1,-1,46,48,-1,50,-1,-1,-1,-1,52,-1,-1,-1,-1,-1,54,56,58,60,-1,62,-1,-1,-1,-1,-1,-1,-1,-1,-1,-1,-1,-1,-1,-1],"split_conditions":[2.624676E-1,3.9620924E-1,2.2967656E-1,-5.284098E-2,1.038989E0,6.5911204E-1,5.173222E-1,-5.780853E-1,1.4576995E-1,-7.2459346E-1,2.8255686E-1,4.246402E-1,-3.7288567E-1,-1.8367694E-1,7.3321706E-1,-1.2594825E0,6.840214E-1,-4.7415172E-4,-8.738916E-1,-9.3981284E-1,7.390591E-4,5.814096E-3,2.3712663E-3,-3.220573E-4,-1.2993895E0,1.2164727E0,-8.437783E-1,3.621783E-4,1.3870538E-3,6.5911204E-1,-9.494838E-1,6.979108E-5,-1.0513754E0,-7.991877E-4,1.7441624E-5,-3.9265922E-4,-1.557823E-3,-1.0381074E0,3.799555E-3,-5.3637254E-4,-2.154234E-3,-1.449287E-5,-1.9929826E-3,-9.3305284E-1,-1.1105366E0,5.1795876E-1,7.2390825E-1,1.2551666E-3,1.7268439E-1,4.4804477E-4,1.2233176E-3,8.562737E-4,1.9361085E-3,-1.465416E-3,-3.5706462E-4,-1.019957E-3,-6.568556E-3,-6.661019E-4,8.3945895E-5,-1.9443104E-3,-6.6639914E-4,-8.95441E-4,4.158887E-4],"split_indices":[20,15,19,2,0,20,20,0,5,20,5,2,3,0,15,2,0,0,0,20,0,0,0,0,1,0,1,0,0,20,1,0,0,0,0,0,0,2,0,0,0,0,0,0,0,4,20,0,6,0,0,0,0,0,0,0,0,0,0,0,0,0,0],"split_type":[0,0,0,0,0,0,0,0,0,0,0,0,0,0,0,0,0,0,0,0,0,0,0,0,0,0,0,0,0,0,0,0,0,0,0,0,0,0,0,0,0,0,0,0,0,0,0,0,0,0,0,0,0,0,0,0,0,0,0,0,0,0,0],"sum_hessian":[1.21E2,4.9E1,7.2E1,1.8E1,3.1E1,1.9E1,5.3E1,9E0,9E0,2.4E1,7E0,7E0,1.2E1,4E0,4.9E1,7E0,2E0,6E0,3E0,1.8E1,6E0,4E0,3E0,1E0,6E0,3E0,9E0,2E0,2E0,3.9E1,1E1,1E0,6E0,1E0,1E0,1E0,2E0,1.3E1,5E0,1E0,5E0,1E0,2E0,2E0,7E0,1.2E1,2.7E1,2E0,8E0,2E0,4E0,5E0,8E0,1E0,1E0,1E0,6E0,5E0,7E0,6E0,2.1E1,3E0,5E0],"tree_param":{"num_deleted":"0","num_feature":"22","num_nodes":"63","size_leaf_vector":"1"}},{"base_weights":[-1.9289214E-4,7.890734E-3,-2.0501972E-3,5.0330334E-3,1.5148714E-2,-8.613508E-4,-9.940066E-3,3.0158514E-3,7.17753E-3,2.1246762E-3,6.256327E-3,-3.3406075E-3,4.1388735E-4,-4.0509105E-3,-1.3114424E-2,1.957953E-4,3.4684902E-3,7.9270755E-4,2.4746584E-3,-2.391127E-3,-8.914449E-3,3.3657122E-3,-8.610349E-4,-1.3488284E-3,-2.737485E-4,-5.7417583E-3,-5.6717247E-3,3.7229064E-4,1.1782933E-3,-1.0848263E-3,-3.9336006E-3,-3.764382E-3,2.9790346E-4,3.9206306E-3,-9.1018487E-4,-4.4668023E-4,-3.8379235E-3,-1.9751443E-3,-3.0350537E-4,1.9730187E-5,-6.7309226E-4,-1.5468476E-3,-5.5550487E-4,1.6906497E-3,8.209432E-4,-2.9079415E-4,4.903079E-4,-1.4401185E-3,1.7945655E-6],"categories":[],"categories_nodes":[],"categories_segments":[],"categories_sizes":[],"default_left":[0,0,0,0,0,0,0,0,0,0,0,0,0,0,0,0,0,0,0,0,0,0,0,0,0,0,0,0,0,0,0,0,0,0,0,0,0,0,0,0,0,0,0,0,0,0,0,0,0],"id":11,"left_children":[1,3,5,7,9,11,13,15,17,-1,-1,19,21,23,25,-1,27,-1,-1,29,31,33,35,-1,-1,-1,37,-1,-1,39,41,-1,-1,43,-1,45,47,-1,-1,-1,-1,-1,-1,-1,-1,-1,-1,-1,-1],"loss_changes":[1.8478564E-3,4.0080224E-4,9.2942244E-4,5.6218763E-5,1.2845302E-4,2.796072E-4,1.899004E-4,9.502728E-6,1.7072918E-5,0E0,0E0,1.3745204E-4,2.2493547E-4,4.280366E-6,2.501721E-4,0E0,4.330883E-6,0E0,0E0,5.013593E-5,1.5645492E-4,7.58182E-5,5.009216E-5,0E0,0E0,0E0,1.4591118E-5,0E0,0E0,2.1480751E-5,2.099562E-5,0E0,0E0,1.9099913E-5,0E0,4.2913816E-5,1.8526975E-5,0E0,0E0,0E0,0E0,0E0,0E0,0E0,0E0,0E0,0E0,0E0,0E0],"parents":[2147483647,0,0,1,1,2,2,3,3,4,4,5,5,6,6,7,7,8,8,11,11,12,12,13,13,14,14,16,16,19,19,20,20,21,21,22,22,26,26,29,29,30,30,33,33,35,35,36,36],"right_children":[2,4,6,8,10,12,14,16,18,-1,-1,20,22,24,26,-1,28,-1,-1,30,32,34,36,-1,-1,-1,38,-1,-1,40,42,-1,-1,44,-1,46,48,-1,-1,-1,-1,-1,-1,-1,-1,-1,-1,-1,-1],"split_conditions":[-8.831761E-1,7.3321706E-1,7.191954E-1,-1.086214E0,-1.086214E0,1.8654013E-1,-3.7288567E-1,7.81479E-1,3.9620924E-1,2.1246762E-3,6.256327E-3,1.0913583E0,5.173222E-1,9.2214876E-1,8.374335E-1,1.957953E-4,-1.0592102E0,7.9270755E-4,2.4746584E-3,-6.3724655E-1,6.612141E-1,1.512279E0,1.3702263E0,-1.3488284E-3,-2.737485E-4,-5.7417583E-3,-8.344507E-1,3.7229064E-4,1.1782933E-3,2.624676E-1,-6.8137115E-1,-3.764382E-3,2.9790346E-4,-1.1796222E-1,-9.1018487E-4,5.340244E-1,-3.2171988E-1,-1.9751443E-3,-3.0350537E-4,1.9730187E-5,-6.7309226E-4,-1.5468476E-3,-5.5550487E-4,1.6906497E-3,8.209432E-4,-2.9079415E-4,4.903079E-4,-1.4401185E-3,1.7945655E-6],"split_indices":[3,15,6,20,20,16,3,6,15,0,0,20,20,6,2,0,8,0,0,0,1,0,1,0,0,0,0,0,0,20,9,0,0,4,0,1,0,0,0,0,0,0,0,0,0,0,0,0,0],"split_type":[0,0,0,0,0,0,0,0,0,0,0,0,0,0,0,0,0,0,0,0,0,0,0,0,0,0,0,0,0,0,0,0,0,0,0,0,0,0,0,0,0,0,0,0,0,0,0,0,0],"sum_hessian":[1.21E2,2.2E1,9.9E1,1.7E1,5E0,8.7E1,1.2E1,1E1,7E0,3E0,2E0,2.9E1,5.8E1,5E0,7E0,2E0,8E0,2E0,5E0,2.6E1,3E0,1.7E1,4.1E1,4E0,1E0,3E0,4E0,2E0,6E0,1.5E1,1.1E1,2E0,1E0,1.6E1,1E0,3.7E1,4E0,3E0,1E0,8E0,7E0,6E0,5E0,5E0,1.1E1,3E1,7E0,3E0,1E0],"tree_param":{"num_deleted":"0","num_feature":"22","num_nodes":"49","size_leaf_vector":"1"}},{"base_weights":[-1.5230302E-4,6.1058938E-3,-1.5901652E-3,4.4648596E-3,4.667351E-3,-6.695331E-4,-7.6998165E-3,2.8280604E-3,6.333029E-3,-3.879964E-3,-9.722354E-6,-3.10607E-3,-1.0182649E-2,1.362196E-3,1.1669749E-3,6.341659E-4,2.1709546E-3,-1.0531105E-3,-5.6475205E-3,2.0123143E-3,-1.0205462E-3,-1.347553E-3,-1.3246208E-3,-4.4498644E-3,-4.425934E-3,2.9951336E-5,4.6678484E-4,9.815097E-5,-1.3376855E-3,-6.6643283E-3,-8.131285E-4,2.917538E-3,-1.3404832E-3,-1.6541803E-3,5.682121E-4,-6.6569156E-4,1.9000546E-4,-1.5307356E-3,-2.5797935E-4,2.2809814E-5,-4.906907E-4,-5.8855995E-4,-2.1637343E-3,5.3259364E-4,1.1646698E-3,-1.4926838E-4,-6.0526544E-4,-5.6572614E-4,9.6763263E-4,8.4167527E-4,-2.4930967E-4],"categories":[],"categories_nodes":[],"categories_segments":[],"categories_sizes":[],"default_left":[0,0,0,0,0,0,0,0,0,0,0,0,0,0,0,0,0,0,0,0,0,0,0,0,0,0,0,0,0,0,0,0,0,0,0,0,0,0,0,0,0,0,0,0,0,0,0,0,0,0,0],"id":12,"left_children":[1,3,5,7,-1,9,11,13,15,17,19,21,23,25,-1,-1,-1,27,29,31,33,35,-1,-1,37,-1,-1,-1,39,41,-1,43,45,47,49,-1,-1,-1,-1,-1,-1,-1,-1,-1,-1,-1,-1,-1,-1,-1,-1],"loss_changes":[1.1075172E-3,2.872885E-4,5.573188E-4,4.630396E-5,0E0,1.8637061E-4,1.16643554E-4,1.4936151E-5,1.9010244E-5,6.900191E-5,1.5330395E-4,7.864914E-6,1.4851114E-4,1.5567603E-6,0E0,0E0,0E0,3.1872041E-6,8.814939E-6,7.978669E-5,5.1274503E-5,8.310179E-6,0E0,0E0,7.674564E-6,0E0,0E0,0E0,2.6516673E-6,1.3152021E-6,0E0,1.5145808E-5,2.4204392E-6,4.676204E-5,4.9290986E-5,0E0,0E0,0E0,0E0,0E0,0E0,0E0,0E0,0E0,0E0,0E0,0E0,0E0,0E0,0E0,0E0],"parents":[2147483647,0,0,1,1,2,2,3,3,5,5,6,6,7,7,8,8,9,9,10,10,11,11,12,12,13,13,17,17,18,18,19,19,20,20,21,21,24,24,28,28,29,29,31,31,32,32,33,33,34,34],"right_children":[2,4,6,8,-1,10,12,14,16,18,20,22,24,26,-1,-1,-1,28,30,32,34,36,-1,-1,38,-1,-1,-1,40,42,-1,44,46,48,50,-1,-1,-1,-1,-1,-1,-1,-1,-1,-1,-1,-1,-1,-1,-1,-1],"split_conditions":[-8.831761E-1,1.4333973E0,7.191954E-1,-1.086214E0,4.667351E-3,-9.8992085E-1,-3.7288567E-1,6.4703864E-1,3.9620924E-1,-7.2459346E-1,5.173222E-1,1.2164727E0,8.374335E-1,-6.33679E-1,1.1669749E-3,6.341659E-4,2.1709546E-3,-1.516744E0,1.645869E-1,7.781445E-1,3.4012592E-1,1.1967523E0,-1.3246208E-3,-4.4498644E-3,-8.344507E-1,2.9951336E-5,4.6678484E-4,9.815097E-5,-8.878692E-1,-3.4473938E-1,-8.131285E-4,-4.0378213E-1,1.4576995E-1,1.0192685E0,1.2246562E-1,-6.6569156E-4,1.9000546E-4,-1.5307356E-3,-2.5797935E-4,2.2809814E-5,-4.906907E-4,-5.8855995E-4,-2.1637343E-3,5.3259364E-4,1.1646698E-3,-1.4926838E-4,-6.0526544E-4,-5.6572614E-4,9.6763263E-4,8.4167527E-4,-2.4930967E-4],"split_indices":[3,0,6,20,0,19,3,17,15,20,20,0,2,1,0,0,0,1,6,2,2,0,0,0,0,0,0,0,2,1,0,2,5,0,7,0,0,0,0,0,0,0,0,0,0,0,0,0,0,0,0],"split_type":[0,0,0,0,0,0,0,0,0,0,0,0,0,0,0,0,0,0,0,0,0,0,0,0,0,0,0,0,0,0,0,0,0,0,0,0,0,0,0,0,0,0,0,0,0,0,0,0,0,0,0],"sum_hessian":[1.21E2,2.2E1,9.9E1,2E1,2E0,8.7E1,1.2E1,1.2E1,8E0,1.4E1,7.3E1,5E0,7E0,6E0,6E0,2E0,6E0,6E0,8E0,2.4E1,4.9E1,3E0,2E0,3E0,4E0,1E0,5E0,1E0,5E0,5E0,3E0,1.9E1,5E0,3.5E1,1.4E1,2E0,1E0,3E0,1E0,1E0,4E0,1E0,4E0,1E1,9E0,3E0,2E0,3.4E1,1E0,5E0,9E0],"tree_param":{"num_deleted":"0","num_feature":"22","num_nodes":"51","size_leaf_vector":"1"}},{"base_weights":[-1.139953E-4,4.6713557E-3,-1.2134861E-3,2.737506E-3,9.694345E-3,-4.913799E-4,-6.0082446E-3,1.6306083E-3,3.917302E-3,1.1215289E-3,4.3212357E-3,2.1403903E-5,-3.2033373E-3,-1.958853E-3,-7.5903237E-3,1.888463E-4,6.3382514E-4,2.9785372E-4,1.257974E-3,-1.2093678E-3,1.0715406E-3,-5.320649E-3,5.0652004E-4,1.911521E-5,-9.985417E-4,-1.0206687E-2,-3.4558952E-3,1.0393113E-3,-2.0277302E-3,-3.5659788E-4,1.8252642E-3,-2.4088505E-3,-1.5476671E-3,-1.7447263E-4,5.365422E-4,-7.577285E-4,-3.4486437E-3,-1.1863199E-3,-2.1928178E-4,-1.5258869E-4,6.468129E-4,-2.1381123E-4,-8.8337075E-4,2.4271947E-4,-5.413094E-4,3.9223334E-4,1.1526548E-3,-5.838072E-4,6.8640425E-6],"categories":[],"categories_nodes":[],"categories_segments":[],"categories_sizes":[],"default_left":[0,0,0,0,0,0,0,0,0,0,0,0,0,0,0,0,0,0,0,0,0,0,0,0,0,0,0,0,0,0,0,0,0,0,0,0,0,0,0,0,0,0,0,0,0,0,0,0,0],"id":13,"left_children":[1,3,5,7,9,11,13,15,17,-1,-1,19,21,23,25,-1,-1,-1,-1,27,29,31,33,-1,-1,35,37,39,41,43,45,-1,47,-1,-1,-1,-1,-1,-1,-1,-1,-1,-1,-1,-1,-1,-1,-1,-1],"loss_changes":[6.475654E-4,1.9687694E-4,3.4328015E-4,1.7118859E-5,1.14457274E-4,1.2244556E-4,6.84156E-5,3.979556E-6,2.2926542E-6,0E0,0E0,9.823179E-5,1.1266397E-4,1.406284E-5,6.2081264E-5,0E0,0E0,0E0,0E0,6.6515655E-5,4.4784167E-5,7.955707E-5,9.409462E-6,0E0,0E0,2.046075E-5,3.9015868E-6,1.8382965E-5,2.9248724E-5,2.6773963E-5,2.3175373E-5,0E0,3.1727168E-6,0E0,0E0,0E0,0E0,0E0,0E0,0E0,0E0,0E0,0E0,0E0,0E0,0E0,0E0,0E0,0E0],"parents":[2147483647,0,0,1,1,2,2,3,3,4,4,5,5,6,6,7,7,8,8,11,11,12,12,13,13,14,14,19,19,20,20,21,21,22,22,25,25,26,26,27,27,28,28,29,29,30,30,32,32],"right_children":[2,4,6,8,10,12,14,16,18,-1,-1,20,22,24,26,-1,-1,-1,-1,28,30,32,34,-1,-1,36,38,40,42,44,46,-1,48,-1,-1,-1,-1,-1,-1,-1,-1,-1,-1,-1,-1,-1,-1,-1,-1],"split_conditions":[-8.831761E-1,7.3321706E-1,7.191954E-1,-1.086214E0,-1.086214E0,1.0913583E0,-3.77919E-1,-3.0921593E-1,-1.1172057E0,1.1215289E-3,4.3212357E-3,2.8476655E-1,1.7303829E0,4.3210903E-1,8.374335E-1,1.888463E-4,6.3382514E-4,2.9785372E-4,1.257974E-3,4.11097E-2,-5.9780574E-1,-6.755329E-1,-2.9210573E-1,1.911521E-5,-9.985417E-4,-3.7288567E-1,-8.344507E-1,-9.8992085E-1,-3.7049662E-2,6.5911204E-1,1.038989E0,-2.4088505E-3,6.6430104E-1,-1.7447263E-4,5.365422E-4,-7.577285E-4,-3.4486437E-3,-1.1863199E-3,-2.1928178E-4,-1.5258869E-4,6.468129E-4,-2.1381123E-4,-8.8337075E-4,2.4271947E-4,-5.413094E-4,3.9223334E-4,1.1526548E-3,-5.838072E-4,6.8640425E-6],"split_indices":[3,15,6,20,20,20,3,1,11,0,0,21,20,1,2,0,0,0,0,2,0,9,8,0,0,3,0,19,6,20,0,0,0,0,0,0,0,0,0,0,0,0,0,0,0,0,0,0,0],"split_type":[0,0,0,0,0,0,0,0,0,0,0,0,0,0,0,0,0,0,0,0,0,0,0,0,0,0,0,0,0,0,0,0,0,0,0,0,0,0,0,0,0,0,0,0,0,0,0,0,0],"sum_hessian":[1.21E2,2.2E1,9.9E1,1.7E1,5E0,8.7E1,1.2E1,1E1,7E0,3E0,2E0,7.4E1,1.3E1,4E0,8E0,4E0,6E0,1E0,6E0,3.4E1,4E1,8E0,5E0,2E0,2E0,4E0,4E0,9E0,2.5E1,1.4E1,2.6E1,4E0,4E0,3E0,2E0,1E0,3E0,3E0,1E0,4E0,5E0,1.1E1,1.4E1,8E0,6E0,2.2E1,4E0,3E0,1E0],"tree_param":{"num_deleted":"0","num_feature":"22","num_nodes":"49","size_leaf_vector":"1"}},{"base_weights":[-8.5948726E-5,2.5567298E-3,-1.3118834E-3,1.3149676E-3,7.204188E-3,-4.154944E-3,-2.3604046E-4,-1.1107027E-4,2.0672288E-3,4.1289437E-3,1.2903092E-3,-2.0776642E-3,-5.5930307E-3,1.2489126E-4,-1.6060824E-3,-3.2784877E-4,3.3760816E-4,1.2372123E-3,2.8565258E-3,-1.18115546E-4,-2.2066871E-3,-2.421764E-3,-7.2723515E-3,-3.3032693E-4,2.9684212E-3,-2.9210655E-3,4.1490886E-4,3.0304672E-4,-1.2073831E-4,1.7518477E-4,4.861223E-4,9.503195E-4,3.2234046E-4,-1.3569967E-4,-7.054069E-4,-3.1176328E-3,1.5863702E-4,-8.381742E-3,-7.888362E-4,4.749868E-4,-1.519946E-3,1.162814E-3,3.9560726E-4,-1.3031063E-3,-1.1987549E-3,-1.3521631E-4,4.2923374E-4,-1.8638895E-4,-1.0759179E-3,-7.9570716E-4,-3.1750037E-3,1.943025E-4,-6.022357E-4,-9.6730696E-4,4.9805367E-5,-4.5245033E-4,5.834436E-6],"categories":[],"categories_nodes":[],"categories_segments":[],"categories_sizes":[],"default_left":[0,0,0,0,0,0,0,0,0,0,0,0,0,0,0,0,0,0,0,0,0,0,0,0,0,0,0,0,0,0,0,0,0,0,0,0,0,0,0,0,0,0,0,0,0,0,0,0,0,0,0,0,0,0,0,0,0],"id":14,"left_children":[1,3,5,7,9,11,13,15,17,-1,-1,19,21,23,25,-1,27,29,31,-1,33,35,37,39,41,43,45,-1,-1,-1,-1,-1,-1,-1,-1,47,-1,49,-1,51,53,-1,-1,-1,55,-1,-1,-1,-1,-1,-1,-1,-1,-1,-1,-1,-1],"loss_changes":[3.9860385E-4,2.1559722E-4,2.5594892E-4,3.4557706E-5,9.31377E-5,5.708763E-5,3.0859064E-5,5.654876E-6,1.0223594E-5,0E0,0E0,1.5211263E-6,5.1620533E-5,6.570188E-5,3.5760375E-5,0E0,4.886133E-6,2.0576917E-6,2.1422384E-6,0E0,1.4744146E-6,1.3967765E-5,1.916691E-5,4.2874686E-5,5.3700496E-6,1.4394565E-5,5.9210874E-6,0E0,0E0,0E0,0E0,0E0,0E0,0E0,0E0,3.6226993E-6,0E0,4.761218E-5,0E0,1.2874746E-5,5.2259635E-5,0E0,0E0,0E0,1.9139688E-6,0E0,0E0,0E0,0E0,0E0,0E0,0E0,0E0,0E0,0E0,0E0,0E0],"parents":[2147483647,0,0,1,1,2,2,3,3,4,4,5,5,6,6,7,7,8,8,11,11,12,12,13,13,14,14,16,16,17,17,18,18,20,20,21,21,22,22,23,23,24,24,25,25,26,26,35,35,37,37,39,39,40,40,44,44],"right_children":[2,4,6,8,10,12,14,16,18,-1,-1,20,22,24,26,-1,28,30,32,-1,34,36,38,40,42,44,46,-1,-1,-1,-1,-1,-1,-1,-1,48,-1,50,-1,52,54,-1,-1,-1,56,-1,-1,-1,-1,-1,-1,-1,-1,-1,-1,-1,-1],"split_conditions":[-7.2459346E-1,7.3321706E-1,2.2967656E-1,5.9201445E-2,-8.0179775E-1,6.5911204E-1,1.0913583E0,-1.6582007E0,-1.086214E0,4.1289437E-3,1.2903092E-3,-1.2993895E0,-1.9027887E-1,9.6119523E-1,1.7303829E0,-3.2784877E-4,-5.284098E-2,-1.2594825E0,6.220435E-1,-1.18115546E-4,4.246402E-1,-2.8611934E-1,8.374335E-1,6.5911204E-1,-3.179264E-1,-4.5845208E-1,-2.9210573E-1,3.0304672E-4,-1.2073831E-4,1.7518477E-4,4.861223E-4,9.503195E-4,3.2234046E-4,-1.3569967E-4,-7.054069E-4,1.7020364E0,1.5863702E-4,-3.2146376E-1,-7.888362E-4,1.512279E0,7.2390825E-1,1.162814E-3,3.9560726E-4,-1.3031063E-3,6.6430104E-1,-1.3521631E-4,4.2923374E-4,-1.8638895E-4,-1.0759179E-3,-7.9570716E-4,-3.1750037E-3,1.943025E-4,-6.022357E-4,-9.6730696E-4,4.9805367E-5,-4.5245033E-4,5.834436E-6],"split_indices":[20,15,19,15,7,20,20,19,20,0,0,1,1,20,20,0,2,2,14,0,2,1,2,20,14,2,8,0,0,0,0,0,0,0,0,5,0,3,0,0,20,0,0,0,0,0,0,0,0,0,0,0,0,0,0,0,0],"split_type":[0,0,0,0,0,0,0,0,0,0,0,0,0,0,0,0,0,0,0,0,0,0,0,0,0,0,0,0,0,0,0,0,0,0,0,0,0,0,0,0,0,0,0,0,0,0,0,0,0,0,0,0,0,0,0,0,0],"sum_hessian":[1.21E2,3.8E1,8.3E1,3.1E1,7E0,2.2E1,6.1E1,1.1E1,2E1,1E0,6E0,1E1,1.2E1,4.9E1,1.2E1,3E0,8E0,1.1E1,9E0,1E0,9E0,5E0,7E0,4.3E1,6E0,7E0,5E0,4E0,4E0,5E0,6E0,7E0,2E0,1E0,8E0,4E0,1E0,5E0,2E0,2.6E1,1.7E1,3E0,3E0,3E0,4E0,3E0,2E0,1E0,3E0,2E0,3E0,2.5E1,1E0,8E0,9E0,3E0,1E0],"tree_param":{"num_deleted":"0","num_feature":"22","num_nodes":"57","size_leaf_vector":"1"}},{"base_weights":[-6.7027824E-5,1.9745252E-3,-1.0140938E-3,9.763689E-4,5.720334E-3,-3.205089E-3,-1.8494888E-4,8.511771E-5,1.6648355E-3,3.5096037E-3,3.1950453E-3,-4.6247017E-4,-4.366139E-3,-4.131431E-4,1.4070051E-3,-3.1160456E-4,9.408832E-4,1.134109E-3,2.5372703E-3,2.1041036E-4,1.048129E-3,-1.879178E-3,-5.685592E-3,1.9453812E-4,-8.898814E-4,-2.2543092E-4,2.251725E-3,-2.030718E-4,7.86415E-5,-3.8544462E-5,3.7210344E-4,2.0090361E-4,4.692994E-4,3.8280713E-4,1.0119528E-3,-2.434802E-3,1.3484136E-4,-2.3006368E-3,-2.9619157E-3,3.4483842E-4,-5.119004E-4,-2.544077E-3,-3.0140442E-4,2.0264239E-4,8.612945E-4,-1.5843139E-4,-8.338351E-4,-1.1486561E-4,-1.0532857E-3,-4.2622043E-5,4.0092642E-4,1.00637044E-4,-9.0100855E-4,2.2093367E-4,-3.7087046E-4],"categories":[],"categories_nodes":[],"categories_segments":[],"categories_sizes":[],"default_left":[0,0,0,0,0,0,0,0,0,0,0,0,0,0,0,0,0,0,0,0,0,0,0,0,0,0,0,0,0,0,0,0,0,0,0,0,0,0,0,0,0,0,0,0,0,0,0,0,0,0,0,0,0,0,0],"id":15,"left_children":[1,3,5,7,9,11,13,15,17,-1,19,-1,21,23,25,27,29,31,33,-1,-1,35,37,39,41,-1,43,-1,-1,-1,-1,-1,-1,-1,-1,45,-1,-1,47,49,-1,51,53,-1,-1,-1,-1,-1,-1,-1,-1,-1,-1,-1,-1],"loss_changes":[2.3788754E-4,1.4023203E-4,1.5200602E-4,1.9493387E-5,8.339857E-5,3.7692225E-5,2.3104327E-5,5.3857016E-6,5.4568955E-6,0E0,2.7639253E-6,0E0,3.1974312E-5,1.6106887E-5,1.6278256E-5,2.4829228E-6,1.7605294E-6,1.5499081E-6,2.0214466E-6,0E0,0E0,8.857494E-6,2.049841E-5,7.730952E-6,2.9410345E-5,0E0,3.917343E-6,0E0,0E0,0E0,0E0,0E0,0E0,0E0,0E0,1.817858E-6,0E0,0E0,5.7356156E-6,1.1777395E-5,0E0,1.1587697E-5,2.4195548E-5,0E0,0E0,0E0,0E0,0E0,0E0,0E0,0E0,0E0,0E0,0E0,0E0],"parents":[2147483647,0,0,1,1,2,2,3,3,4,4,5,5,6,6,7,7,8,8,10,10,12,12,13,13,14,14,15,15,16,16,17,17,18,18,21,21,22,22,23,23,24,24,26,26,35,35,38,38,39,39,41,41,42,42],"right_children":[2,4,6,8,10,12,14,16,18,-1,20,-1,22,24,26,28,30,32,34,-1,-1,36,38,40,42,-1,44,-1,-1,-1,-1,-1,-1,-1,-1,46,-1,-1,48,50,-1,52,54,-1,-1,-1,-1,-1,-1,-1,-1,-1,-1,-1,-1],"split_conditions":[-7.2459346E-1,7.3321706E-1,2.2967656E-1,3.9620924E-1,-8.0179775E-1,6.5911204E-1,4.1495177E-1,-9.3981284E-1,-9.3981284E-1,3.5096037E-3,-1.08819E0,-4.6247017E-4,-1.9027887E-1,6.5911204E-1,-1.2564937E0,-1.3907158E0,-1.5246654E0,-1.0536875E0,-1.245157E-1,2.1041036E-4,1.048129E-3,-2.8611934E-1,6.612141E-1,1.512279E0,7.2390825E-1,-2.2543092E-4,2.5017223E-1,-2.030718E-4,7.86415E-5,-3.8544462E-5,3.7210344E-4,2.0090361E-4,4.692994E-4,3.8280713E-4,1.0119528E-3,1.7020364E0,1.3484136E-4,-2.3006368E-3,8.8367456E-1,1.5891859E-1,-5.119004E-4,-8.0194783E-1,1.0913583E0,2.0264239E-4,8.612945E-4,-1.5843139E-4,-8.338351E-4,-1.1486561E-4,-1.0532857E-3,-4.2622043E-5,4.0092642E-4,1.00637044E-4,-9.0100855E-4,2.2093367E-4,-3.7087046E-4],"split_indices":[20,15,19,15,7,20,5,20,20,0,2,0,1,20,1,15,0,3,0,0,0,1,1,0,20,0,0,0,0,0,0,0,0,0,0,5,0,0,1,3,0,4,20,0,0,0,0,0,0,0,0,0,0,0,0],"split_type":[0,0,0,0,0,0,0,0,0,0,0,0,0,0,0,0,0,0,0,0,0,0,0,0,0,0,0,0,0,0,0,0,0,0,0,0,0,0,0,0,0,0,0,0,0,0,0,0,0,0,0,0,0,0,0],"sum_hessian":[1.21E2,3.8E1,8.3E1,3.1E1,7E0,2.2E1,6.1E1,1.4E1,1.7E1,1E0,6E0,1E1,1.2E1,5.4E1,7E0,1E1,4E0,1.2E1,5E0,1E0,5E0,5E0,7E0,2.4E1,3E1,2E0,5E0,6E0,4E0,1E0,3E0,7E0,5E0,3E0,2E0,4E0,1E0,3E0,4E0,2.3E1,1E0,7E0,2.3E1,2E0,3E0,1E0,3E0,1E0,3E0,1.6E1,7E0,1E0,6E0,1.1E1,1.2E1],"tree_param":{"num_deleted":"0","num_feature":"22","num_nodes":"55","size_leaf_vector":"1"}},{"base_weights":[-3.0622265E-5,2.2714194E-3,-5.597856E-4,1.4439797E-3,7.3063574E-3,-2.1992102E-3,-4.1526175E-5,1.9274735E-4,1.991555E-3,2.983162E-3,3.0469894E-4,-1.608346E-3,-1.7397434E-3,-3.1766092E-4,1.2237702E-3,1.1716969E-3,8.715052E-4,-9.6837623E-4,-1.2738347E-3,1.7489679E-3,-4.4797E-4,2.6321635E-3,1.4886694E-4,4.851371E-5,4.4442192E-4,-4.4921978E-4,-4.4859105E-4,1.6176515E-5,6.888028E-4,9.855394E-5,-1.0544293E-3,9.133624E-4,8.5541236E-5,-1.3823493E-4,5.3048914E-4,3.740783E-5,-2.8447874E-4,9.218879E-5,-2.1620192E-4,-5.002655E-4,8.317754E-5,-7.303889E-5,2.2019166E-4],"categories":[],"categories_nodes":[],"categories_segments":[],"categories_sizes":[],"default_left":[0,0,0,0,0,0,0,0,0,0,0,0,0,0,0,0,0,0,0,0,0,0,0,0,0,0,0,0,0,0,0,0,0,0,0,0,0,0,0,0,0,0,0],"id":16,"left_children":[1,3,5,7,9,11,13,-1,15,-1,-1,17,-1,19,21,23,-1,25,-1,27,29,31,33,-1,-1,35,-1,-1,-1,37,39,-1,-1,-1,41,-1,-1,-1,-1,-1,-1,-1,-1],"loss_changes":[1.4988653E-4,8.527024E-5,8.48734E-5,7.936829E-6,3.9675782E-5,4.1722713E-5,2.7291951E-5,0E0,5.5831115E-6,0E0,0E0,3.3026205E-5,0E0,1.8018718E-5,2.0802572E-5,2.262852E-6,0E0,4.525875E-6,0E0,3.5852381E-6,2.0322037E-5,4.939051E-6,2.338344E-6,0E0,0E0,3.2687165E-6,0E0,0E0,0E0,5.864695E-6,2.4140481E-5,0E0,0E0,0E0,1.1236116E-6,0E0,0E0,0E0,0E0,0E0,0E0,0E0,0E0],"parents":[2147483647,0,0,1,1,2,2,3,3,4,4,5,5,6,6,8,8,11,11,13,13,14,14,15,15,17,17,19,19,20,20,21,21,22,22,25,25,29,29,30,30,34,34],"right_children":[2,4,6,8,10,12,14,-1,16,-1,-1,18,-1,20,22,24,-1,26,-1,28,30,32,34,-1,-1,36,-1,-1,-1,38,40,-1,-1,-1,42,-1,-1,-1,-1,-1,-1,-1,-1],"split_conditions":[-8.831761E-1,1.4333973E0,-9.8992085E-1,5.5295706E-1,1.5319993E0,2.011485E0,8.8691044E-1,1.9274735E-4,-1.086214E0,2.983162E-3,3.0469894E-4,1.0913583E0,-1.7397434E-3,-1.5339987E0,3.6807334E-1,-3.7335852E-1,8.715052E-4,4.3210903E-1,-1.2738347E-3,-1.6218181E0,6.5911204E-1,1.512279E0,-1.2564937E0,4.851371E-5,4.4442192E-4,7.1055114E-1,-4.4859105E-4,1.6176515E-5,6.888028E-4,8.7115633E-1,5.306437E-1,9.133624E-4,8.5541236E-5,-1.3823493E-4,-1.5049449E0,3.740783E-5,-2.8447874E-4,9.218879E-5,-2.1620192E-4,-5.002655E-4,8.317754E-5,-7.303889E-5,2.2019166E-4],"split_indices":[3,0,19,15,0,5,21,0,20,0,0,20,0,1,2,1,0,1,0,1,20,0,1,0,0,2,0,0,0,2,1,0,0,0,0,0,0,0,0,0,0,0,0],"split_type":[0,0,0,0,0,0,0,0,0,0,0,0,0,0,0,0,0,0,0,0,0,0,0,0,0,0,0,0,0,0,0,0,0,0,0,0,0,0,0,0,0,0,0],"sum_hessian":[1.21E2,2.2E1,9.9E1,2E1,2E0,2.3E1,7.6E1,9E0,1.1E1,1E0,1E0,2.1E1,2E0,6.3E1,1.3E1,7E0,4E0,1.8E1,3E0,3E0,6E1,5E0,8E0,2E0,5E0,1E1,8E0,1E0,2E0,3.2E1,2.8E1,4E0,1E0,3E0,5E0,5E0,5E0,2.6E1,6E0,1.9E1,9E0,1E0,4E0],"tree_param":{"num_deleted":"0","num_feature":"22","num_nodes":"43","size_leaf_vector":"1"}},{"base_weights":[-2.52254E-6,-2.462243E-4,3.0846468E-3,-1.5934412E-3,1.3073845E-4,2.535689E-3,1.3571535E-3,-1.126873E-3,-4.6393177E-3,1.0793641E-3,-1.9204283E-4,1.7977301E-3,7.084772E-6,-6.377569E-4,-3.2907352E-3,-4.1856768E-4,-1.6691253E-3,6.006899E-4,1.5469459E-3,-1.37135685E-5,-1.3595665E-3,6.758203E-4,1.7754437E-4,-2.4050925E-4,-3.2896758E-4,-1.1738882E-3,-2.136089E-4,3.8316028E-4,8.100495E-5,2.0963661E-3,1.4051051E-4,-2.7705418E-4,2.0197302E-3,-1.987202E-3,1.6743162E-4,1.1884729E-4,-1.8250872E-4,1.4713705E-4,7.921916E-4,4.466647E-5,-3.4116316E-4,7.3392043E-4,1.9061046E-4,-8.772651E-4,-1.6601603E-4],"categories":[],"categories_nodes":[],"categories_segments":[],"categories_sizes":[],"default_left":[0,0,0,0,0,0,0,0,0,0,0,0,0,0,0,0,0,0,0,0,0,0,0,0,0,0,0,0,0,0,0,0,0,0,0,0,0,0,0,0,0,0,0,0,0],"id":17,"left_children":[1,3,5,7,9,-1,11,13,15,17,19,21,-1,23,25,-1,-1,27,29,31,33,-1,-1,35,-1,-1,-1,-1,-1,37,-1,39,41,43,-1,-1,-1,-1,-1,-1,-1,-1,-1,-1,-1],"loss_changes":[9.254604E-5,5.8103295E-5,7.198213E-5,3.0299801E-5,2.7765158E-5,0E0,4.657748E-6,2.2244047E-5,1.2341552E-6,4.2186075E-6,1.4139202E-5,1.9589806E-6,0E0,3.381424E-6,3.6320016E-6,0E0,0E0,2.5632894E-6,5.5366418E-6,3.2688877E-5,1.194146E-5,0E0,0E0,3.0514063E-6,0E0,0E0,0E0,0E0,0E0,4.823247E-6,0E0,1.9953679E-5,2.5803074E-6,7.786321E-6,0E0,0E0,0E0,0E0,0E0,0E0,0E0,0E0,0E0,0E0,0E0],"parents":[2147483647,0,0,1,1,2,2,3,3,4,4,6,6,7,7,8,8,9,9,10,10,11,11,13,13,14,14,17,17,18,18,19,19,20,20,23,23,29,29,31,31,32,32,33,33],"right_children":[2,4,6,8,10,-1,12,14,16,18,20,22,-1,24,26,-1,-1,28,30,32,34,-1,-1,36,-1,-1,-1,-1,-1,38,-1,40,42,44,-1,-1,-1,-1,-1,-1,-1,-1,-1,-1,-1],"split_conditions":[1.5961218E0,-9.8992085E-1,-8.0179775E-1,2.011485E0,-4.7118047E-1,2.535689E-3,2.567372E-1,1.0913583E0,7.4318266E-1,-1.086214E0,1.0913583E0,4.6500108E-1,7.084772E-6,4.3210903E-1,1.2973416E0,-4.1856768E-4,-1.6691253E-3,3.1255725E-1,4.283696E-2,9.6119523E-1,1.7303829E0,6.758203E-4,1.7754437E-4,-4.2805016E-1,-3.2896758E-4,-1.1738882E-3,-2.136089E-4,3.8316028E-4,8.100495E-5,-1.4215344E0,1.4051051E-4,6.5911204E-1,3.09063E-1,2.0920849E-1,1.6743162E-4,1.1884729E-4,-1.8250872E-4,1.4713705E-4,7.921916E-4,4.466647E-5,-3.4116316E-4,7.3392043E-4,1.9061046E-4,-8.772651E-4,-1.6601603E-4],"split_indices":[11,19,7,5,3,0,2,20,0,20,20,1,0,1,1,0,0,11,1,20,20,0,0,3,0,0,0,0,0,3,0,20,3,13,0,0,0,0,0,0,0,0,0,0,0],"split_type":[0,0,0,0,0,0,0,0,0,0,0,0,0,0,0,0,0,0,0,0,0,0,0,0,0,0,0,0,0,0,0,0,0,0,0,0,0,0,0,0,0,0,0,0,0],"sum_hessian":[1.21E2,1.13E2,8E0,2.4E1,8.9E1,1E0,7E0,2.2E1,2E0,2.2E1,6.7E1,5E0,2E0,1.9E1,3E0,1E0,1E0,1.2E1,1E1,5.9E1,8E0,3E0,2E0,1.1E1,8E0,2E0,1E0,3E0,9E0,6E0,4E0,5.3E1,6E0,6E0,2E0,4E0,7E0,2E0,4E0,3.6E1,1.7E1,4E0,2E0,3E0,3E0],"tree_param":{"num_deleted":"0","num_feature":"22","num_nodes":"45","size_leaf_vector":"1"}},{"base_weights":[4.991669E-6,-1.9491589E-4,2.5365995E-3,-6.478803E-5,-3.0187457E-3,2.1553338E-3,1.057563E-3,5.596614E-4,-4.2961142E-4,-4.2265246E-4,-1.4187545E-3,1.4006378E-3,5.6677445E-6,7.8098994E-4,7.702851E-5,-1.8963995E-4,-2.0350139E-3,1.853373E-4,5.9326633E-4,4.254356E-4,1.0607747E-3,-1.9896083E-4,1.685872E-4,-3.8680757E-4,1.1895925E-3,-3.3961192E-3,-8.007169E-5,-1.5231754E-5,2.3668149E-4,4.46722E-4,1.4996376E-4,6.459656E-5,-1.7929936E-4,1.2613393E-4,6.9940614E-4,-1.1827609E-3,-1.8156768E-4],"categories":[],"categories_nodes":[],"categories_segments":[],"categories_sizes":[],"default_left":[0,0,0,0,0,0,0,0,0,0,0,0,0,0,0,0,0,0,0,0,0,0,0,0,0,0,0,0,0,0,0,0,0,0,0,0,0],"id":18,"left_children":[1,3,5,7,9,-1,11,13,15,-1,-1,17,-1,19,21,23,25,-1,-1,27,29,-1,-1,31,33,35,-1,-1,-1,-1,-1,-1,-1,-1,-1,-1,-1],"loss_changes":[6.223711E-5,4.1694744E-5,5.4271E-5,2.5299953E-5,7.105522E-6,0E0,2.8242712E-6,4.3194786E-6,2.6581634E-5,0E0,0E0,1.488107E-6,0E0,2.3341108E-6,5.3981234E-6,1.7320424E-5,2.0752792E-5,0E0,0E0,2.463497E-6,2.859104E-6,0E0,0E0,7.1116656E-6,6.0452385E-6,5.238835E-6,0E0,0E0,0E0,0E0,0E0,0E0,0E0,0E0,0E0,0E0,0E0],"parents":[2147483647,0,0,1,1,2,2,3,3,4,4,6,6,7,7,8,8,11,11,13,13,14,14,15,15,16,16,19,19,20,20,23,23,24,24,25,25],"right_children":[2,4,6,8,10,-1,12,14,16,-1,-1,18,-1,20,22,24,26,-1,-1,28,30,-1,-1,32,34,36,-1,-1,-1,-1,-1,-1,-1,-1,-1,-1,-1],"split_conditions":[1.5961218E0,2.060271E0,-8.0179775E-1,-5.4315364E-1,7.4318266E-1,2.1553338E-3,2.567372E-1,-4.3411985E-1,1.0913583E0,-4.2265246E-4,-1.4187545E-3,2.3007025E-1,5.6677445E-6,-1.086214E0,-9.1390324E-1,9.6119523E-1,3.9620924E-1,1.853373E-4,5.9326633E-4,-3.0921593E-1,4.283696E-2,-1.9896083E-4,1.685872E-4,-5.129411E-1,7.307805E-1,1.2973416E0,-8.007169E-5,-1.5231754E-5,2.3668149E-4,4.46722E-4,1.4996376E-4,6.459656E-5,-1.7929936E-4,1.2613393E-4,6.9940614E-4,-1.1827609E-3,-1.8156768E-4],"split_indices":[11,5,7,2,0,0,2,3,20,0,0,2,0,20,2,20,15,0,0,1,1,0,0,7,17,1,0,0,0,0,0,0,0,0,0,0,0],"split_type":[0,0,0,0,0,0,0,0,0,0,0,0,0,0,0,0,0,0,0,0,0,0,0,0,0,0,0,0,0,0,0,0,0,0,0,0,0],"sum_hessian":[1.21E2,1.13E2,8E0,1.09E2,4E0,1E0,7E0,4E1,6.9E1,3E0,1E0,5E0,2E0,2.7E1,1.3E1,6.1E1,8E0,3E0,2E0,1.3E1,1.4E1,5E0,8E0,5.4E1,7E0,4E0,4E0,6E0,7E0,7E0,7E0,1.4E1,4E1,5E0,2E0,3E0,1E0],"tree_param":{"num_deleted":"0","num_feature":"22","num_nodes":"37","size_leaf_vector":"1"}},{"base_weights":[1.29401105E-5,-2.4169401E-4,1.4060457E-3,-1.2729186E-4,-2.481398E-3,1.8320337E-3,8.056284E-4,3.7108667E-4,-4.3873495E-4,-3.2755474E-4,-1.2059391E-3,-6.3596E-5,1.1115175E-3,1.0309452E-3,2.4372674E-4,-2.2313504E-4,-2.1008577E-3,5.0086895E-5,1.3539473E-3,4.2941776E-4,4.6010126E-5,3.8856108E-4,-2.75555E-4,-3.8331404E-4,9.5287716E-4,-2.6501478E-3,-1.455266E-4,1.7048408E-3,1.7757207E-4,8.988139E-5,3.0010345E-4,-2.37461E-4,5.770239E-5,2.5197744E-5,-2.0929545E-4,-7.57009E-6,5.0783064E-4,-9.166394E-4,-1.5433208E-4,1.3336726E-4,6.360128E-4],"categories":[],"categories_nodes":[],"categories_segments":[],"categories_sizes":[],"default_left":[0,0,0,0,0,0,0,0,0,0,0,0,0,0,0,0,0,0,0,0,0,0,0,0,0,0,0,0,0,0,0,0,0,0,0,0,0,0,0,0,0],"id":19,"left_children":[1,3,5,7,9,-1,11,13,15,-1,-1,-1,17,19,21,23,25,-1,27,-1,-1,29,31,33,35,37,-1,39,-1,-1,-1,-1,-1,-1,-1,-1,-1,-1,-1,-1,-1],"loss_changes":[4.3617165E-5,2.633174E-5,4.8705842E-5,1.5684465E-5,6.299393E-6,0E0,5.8386204E-6,3.0262731E-6,2.1749142E-5,0E0,0E0,0E0,2.9798048E-6,1.8890137E-6,2.6642042E-6,1.0914109E-5,4.927122E-6,0E0,1.9322397E-6,0E0,0E0,1.1696898E-6,2.0836526E-6,7.4031936E-6,5.108585E-6,2.7563365E-6,0E0,2.7204205E-6,0E0,0E0,0E0,0E0,0E0,0E0,0E0,0E0,0E0,0E0,0E0,0E0,0E0],"parents":[2147483647,0,0,1,1,2,2,3,3,4,4,6,6,7,7,8,8,12,12,13,13,14,14,15,15,16,16,18,18,21,21,22,22,23,23,24,24,25,25,27,27],"right_children":[2,4,6,8,10,-1,12,14,16,-1,-1,-1,18,20,22,24,26,-1,28,-1,-1,30,32,34,36,38,-1,40,-1,-1,-1,-1,-1,-1,-1,-1,-1,-1,-1,-1,-1],"split_conditions":[8.8691044E-1,2.060271E0,-8.0179775E-1,-5.4315364E-1,7.4318266E-1,1.8320337E-3,-1.2564937E0,4.3013997E-2,1.0913583E0,-3.2755474E-4,-1.2059391E-3,-6.3596E-5,-2.5797668E-1,-7.446335E-1,-3.2146376E-1,9.6119523E-1,3.9620924E-1,5.0086895E-5,1.3742361E0,4.2941776E-4,4.6010126E-5,1.0192685E0,-2.736237E-1,-3.1116825E-2,3.9620924E-1,1.2973416E0,-1.455266E-4,2.5017223E-1,1.7757207E-4,8.988139E-5,3.0010345E-4,-2.37461E-4,5.770239E-5,2.5197744E-5,-2.0929545E-4,-7.57009E-6,5.0783064E-4,-9.166394E-4,-1.5433208E-4,1.3336726E-4,6.360128E-4],"split_indices":[21,5,7,2,0,0,1,6,20,0,0,0,5,2,3,20,15,0,0,0,0,0,3,6,15,1,0,0,0,0,0,0,0,0,0,0,0,0,0,0,0],"split_type":[0,0,0,0,0,0,0,0,0,0,0,0,0,0,0,0,0,0,0,0,0,0,0,0,0,0,0,0,0,0,0,0,0,0,0,0,0,0,0,0,0],"sum_hessian":[1.21E2,1.03E2,1.8E1,9.9E1,4E0,1E0,1.7E1,3.8E1,6.1E1,3E0,1E0,4E0,1.3E1,5E0,3.3E1,5.5E1,6E0,3E0,1E1,3E0,2E0,2.6E1,7E0,4.9E1,6E0,4E0,2E0,6E0,4E0,2.4E1,2E0,3E0,4E0,2E1,2.9E1,3E0,3E0,3E0,1E0,2E0,4E0],"tree_param":{"num_deleted":"0","num_feature":"22","num_nodes":"41","size_leaf_vector":"1"}}]},"name":"gbtree"},"learner_model_param":{"base_score":"3.8573436E-2","boost_from_average":"1","num_class":"0","num_feature":"22","num_target":"1"},"objective":{"name":"reg:squarederror","reg_loss_param":{"scale_pos_weight":"1"}}},"version":[2,1,3]}